1000 200
the 0.13184504 0.20304036 -0.039387695 -0.031865112 -0.0199956 -0.0016241055 -0.034688156 0.026726624 0.059354644 -0.036534965 -0.0045233197 0.0015319969 -0.020354584 -0.054486807 -0.0003357937 -0.05203869 0.03161165 -0.023090318 0.08825241 -0.07937388 -0.050059415 0.0041203494 -0.010629101 0.025910955 -0.014814696 0.005652548 0.011837248 0.034174647 0.018576367 0.03259125 -0.019228008 -0.060830235 0.03778056 0.061805315 0.018950464 0.018988788 -0.018688412 -0.001283539 -0.0620504 0.009701747 -0.012049258 -0.0809632 -0.06231523 -0.07266435 0.0097551895 0.02576212 -0.012489618 0.032669384 -0.034908686 0.00059219653 0.016506746 0.034573838 -0.020155635 0.006997175 -0.019295804 -0.045492154 0.0035376193 -0.006936036 0.022607854 -0.0021052333 -0.009844588 -0.016843505 -0.025161859 0.008252864 0.005414712 -0.013461337 0.03882273 -0.03099897 0.010075865 -0.0029832195 -0.028231064 -0.02335473 -0.05863799 -0.023338582 -0.020573545 0.022855429 0.0011632615 0.0069121937 -0.016028443 0.05848285 -0.003285832 -0.046213645 -0.04919579 0.029376265 -0.01894748 0.05149242 0.0011828298 -0.013228183 -0.021087576 0.0124994265 -0.0013164489 -0.021853074 -0.00240048 0.008500402 8.169064e-05 0.0017481344 -0.036771953 -0.0032587436 -0.013035009 -0.03356004 -0.020179236 -0.022323743 -0.015991291 0.034337033 -0.004029078 -0.013558737 0.008315898 -0.020192165 -0.02645407 0.008914417 0.021638136 0.035766184 0.028641783 0.019417431 -0.009657181 0.019153327 0.0140701765 0.016720483 0.015830208 0.021478958 -0.019082129 0.017789599 -0.021017443 0.013092178 -0.0051204176 -0.015739517 -0.010895928 -0.0035257433 -0.01939667 0.027777027 -0.041883126 0.026490288 -0.027009668 -0.015417705 -0.028435849 -0.017013706 -0.016121255 0.027782798 -0.028948972 -0.027783269 0.0087402025 0.009914946 0.010426575 0.041437935 0.043196652 0.02523152 0.020060277 -0.021113008 -0.021631416 -0.0030183464 0.014714287 0.014283529 0.029389806 -0.008197499 -0.006472963 -0.00087287964 0.023680998 0.008354814 0.012493912 -0.0042131064 -0.0067869257 0.0041170353 0.003760786 -0.009416571 -0.02030897 0.0071238023 -0.047105756 -0.011517821 -0.017539471 -0.003964207 0.015805507 0.0013115649 0.048361722 0.028219149 -0.032464936 0.008441909 0.004627542 -0.0016848798 -0.0005231674 -0.044282217 -0.027977161 -0.054444186 0.025256159 0.009867228 0.022789437 0.027345752 -0.010331692 -0.024131443 -0.006330849 0.024913013 -0.014466099 -0.02681447 -0.015640894 0.014495591 0.04404188 0.0025115735 0.03452078 -0.012610397 -0.024153333 -0.0009938389
, 0.12748727 0.19212937 -0.042028226 0.0031989145 0.0042877365 -0.025734562 -0.005720295 0.009087689 0.034900945 -0.028039293 0.037186716 -0.054127526 -0.06057889 0.036501966 -0.05857101 -0.0038177606 0.044615198 -0.010391968 0.01395814 -0.053973492 -0.050669942 -0.009214133 -0.021842001 0.04301479 0.011288976 0.0063688764 0.045240406 0.0071092076 -0.020608677 -0.031883053 0.031207984 -0.008580863 -0.012190457 0.027941346 -0.013844233 -0.011626043 0.008392317 0.0034970872 0.006822068 -0.008755463 -0.06810512 -0.027142473 -0.040937692 -0.05831249 0.047180813 -0.020268628 -0.024847433 -0.014338513 -0.03306813 0.011025582 0.0035461872 -0.009918935 -0.0041281944 0.032201465 -0.028381446 -0.04755307 0.004058329 -0.022261787 -0.00386442 0.007526161 -0.049698874 -0.051342413 0.01178646 -0.033058833 -0.034122474 -0.027469218 4.683985e-05 0.030333268 0.015355793 0.013247554 0.030740902 -0.01988831 -6.525433e-05 -0.025142811 0.008454411 -0.027180199 -0.021767 -0.024244674 -0.011369245 0.021161674 0.0058825403 0.031558637 -0.024247637 -0.0017262124 0.0060099587 -0.018303163 -0.032153666 -0.0061489404 0.045144618 0.020085549 0.0006987127 -0.0045801387 0.027221503 -0.004833494 -0.014841731 0.0031378015 -0.044944562 0.0058912183 -0.024738688 -0.005749917 -0.0077292873 -0.049772937 0.004609604 -0.009264885 0.01762013 0.0033486169 -0.017311508 0.00079439295 0.01912823 0.0111093 0.0014787256 -0.017878972 0.0207836 -0.0073519847 0.004818676 -0.010818006 -0.02030256 -0.02520431 0.03196383 0.027017139 -0.03080792 -0.016512627 0.00150122 -0.010803436 0.037402596 0.032647822 0.008235745 0.020492086 0.009938669 0.0038359023 -0.02589069 -0.007635446 0.011270393 0.020921404 0.0065893633 0.006705483 0.00038629625 0.009034004 -0.011925321 0.0009594076 -0.03320942 -0.0124536725 0.0006088614 -0.00096767285 0.027368955 -0.0022685747 0.009073573 -0.03380672 0.0045509534 -0.00075947534 0.013021497 0.002714153 0.0137973055 0.0144451475 0.018795937 -0.030897181 0.01717567 -0.0046695312 0.004782475 -0.006310405 -0.015586017 -0.036383048 -0.0043754387 -0.01881238 0.00966886 -0.0055091768 0.0026866177 0.018931167 0.010760081 0.019734444 0.01877608 0.012842742 0.0014225654 0.014669021 0.0071629807 -0.011393756 -0.0052185035 0.0040258085 0.0060947724 0.02278633 0.01948431 -0.00033778144 0.018036576 -0.0014401112 -0.026175898 0.013030572 -0.025142107 -0.008068377 0.008334601 -0.01452618 0.030557344 -0.042898577 0.009607321 -0.036992077 0.011316317 -0.0016531412 -0.0028529542 -0.008128556 -0.032544825 0.0030713712
. 0.12066879 0.18094274 -0.025439635 -0.012913901 0.00467386 -0.023892453 0.022233859 0.012654667 0.02056692 -0.037375823 0.0068491925 -0.012578398 -0.03564099 0.006725305 -0.02013301 -0.01238075 0.06363361 -0.038500704 0.021860758 -0.051722057 -0.036038183 -0.01863345 -0.03663206 0.015826816 0.002857413 0.0061243395 0.020116694 -0.0020925978 -0.0060377335 0.0043870583 -0.0066617127 -0.026123406 -0.013794441 0.019754788 0.0018268987 -0.008384057 -0.038045842 0.015319985 0.0028234713 0.011111225 -0.040115524 -0.032064956 -0.048390403 -0.03598166 -0.041392017 0.024197688 -0.020896444 -0.015556843 -0.022025222 0.015217462 -0.0070478795 -0.028390918 -0.026826497 0.008164283 -0.007930246 -0.011270823 -0.00356922 -0.037896633 0.014069445 0.014863654 -0.038136598 -0.059953354 0.0021411076 -0.019233402 -0.014403844 -0.030763267 -0.002124292 0.0215956 0.0005390599 0.028619573 0.007384273 -0.0027700828 -0.036505967 -0.024615843 0.004520269 0.00474732 -0.011513481 0.0012080529 -0.042293064 0.027700452 0.0205081 0.028855316 -0.005840089 -0.007921491 -0.004066604 -0.037790302 -0.059558716 0.012092948 -0.026063617 0.027432015 0.019327205 0.00041007675 0.013000052 -0.022765873 -0.012481072 -0.021615999 0.024583226 -0.008658763 -0.0353324 -0.0273405 0.016591396 -0.041752826 -0.0015066396 0.003622417 -0.0147680435 -0.015495281 -0.01669247 0.02364389 0.00630903 -0.0039712014 -0.0095901415 0.004307919 0.004142737 -0.020553056 0.008504514 -0.009699455 -0.010574682 -0.037966624 0.018733827 0.0061435946 0.002405642 0.010461436 -0.034580886 0.02450658 0.011752007 0.012182034 -0.026380079 0.005990415 0.0065559116 0.0031659259 -0.02631787 -0.005447523 -0.02503025 0.02709938 0.0045513883 0.033554092 -0.013004248 0.019902913 -0.0077497866 0.025398523 -0.0020275246 -0.00522977 0.0015033615 0.0051352885 0.03648941 -0.014705276 0.020463703 -0.01050443 0.030218622 0.0390639 0.036570057 -0.01623497 0.009019926 0.045845088 0.00857678 -0.030534223 0.011195488 -0.025286013 0.018853888 0.003664454 -0.00862076 -0.012530465 -0.013688627 0.0012527341 -0.008230962 0.020131206 0.022982394 0.010758252 -0.035836212 -0.0053344797 -0.004776742 0.0128640365 -0.013012151 0.027560946 0.0050777784 -0.02241204 0.02031038 -0.023197487 0.028954005 0.008226709 -0.018423555 -0.010931135 -0.01978749 0.011668405 0.0030335248 0.006428154 -0.01219505 -0.006297632 -0.00016322022 -0.00764204 0.008396425 -0.018175188 -0.0007614579 -0.029887222 0.01339614 -0.005526672 -0.0018730739 -0.008619085 -0.029406782 -0.018024808
of 0.118182465 0.18008193 -0.022562565 -0.04719417 0.01157225 -0.042704698 0.053993296 0.032138605 0.04273815 -0.022251379 0.030656895 0.03607997 -0.013680969 -0.062411446 -0.060733132 -0.07422751 0.017713938 -0.050565638 0.039368313 -0.06459697 -0.044816438 -0.029130679 0.004733519 -0.013967118 -0.026212677 0.022956358 0.015727824 -0.0033719311 -0.029494543 0.0017646436 -0.01368765 -0.050397377 -0.021529915 0.0497472 -0.04985206 0.022609172 -0.043748584 -0.04821266 -0.053686455 -0.015917083 -0.07499888 -0.043651033 -0.030719481 -0.0728592 -0.010769795 -0.030152189 0.0008360986 0.0035704707 -0.027225304 -0.013377593 0.041472424 -0.025986893 0.033489037 0.0051495675 0.012850562 -0.04244496 -0.022983957 -0.011761471 -0.04836549 0.0058725905 0.00826615 -0.014662355 -0.008988762 0.040391847 -0.00883848 -0.011118851 -0.041013792 0.00825019 0.025951918 -0.025690436 -0.06723627 0.037789103 0.017373461 0.0045134244 -0.0138594555 0.03443097 -0.04314193 -0.013568159 -4.08678e-05 0.04034476 -0.00996376 -0.016353821 -0.024474166 0.016204204 0.04884056 0.054778967 0.02902065 0.02519231 -0.050360814 -0.008625169 0.014374806 -0.0037091284 0.031695407 -0.026374348 -0.011471834 0.0033246384 0.012555299 0.0052189757 0.06331374 -0.015678473 0.010887331 0.008674075 -0.015600821 0.04493631 -0.006983707 0.0071196267 -0.031443186 0.0021292623 -0.004103457 -0.04103512 0.010003556 0.060573727 -0.013832607 0.048249785 -0.014330784 0.07703529 0.009242932 0.016949272 0.0054441146 0.03310169 0.019702174 0.0122782895 0.040549763 0.031983797 -0.05598154 -0.017270053 -0.019239983 0.0014999999 -0.015228688 0.009268053 -0.031591006 -0.004500702 -0.0512547 0.0081800055 -0.029522413 0.04289542 0.027795639 0.015281035 -0.0029069053 -0.0062146643 -0.012092889 -0.012946338 0.046725184 -0.025722759 -0.022534158 -0.016703865 0.022795837 0.032266263 0.001176529 -0.020431643 -0.04661757 0.00051745796 -0.022320392 -0.03494904 0.0008585766 0.03555582 0.0072286096 -0.011235729 -0.03863654 0.008144416 0.012435636 -0.032009892 -0.00398151 0.07689156 0.01831729 -0.004162704 -0.017344382 0.045183346 0.035835076 -0.039563466 0.027748669 0.032019462 0.039247904 -0.07491406 -0.033760197 0.0018883449 0.01613856 -0.006355275 -0.0007694813 -0.011738302 -0.005738127 0.0024735502 0.044374824 -0.019163702 0.018198952 -0.04768112 0.004815583 0.018258201 -0.046383206 -0.0201936 -0.0044563143 -0.003592928 -0.0058577214 -0.016824352 0.044185158 0.0060682655 -0.027863769 -0.020876434 0.019671092 -0.024634784
and 0.1131206 0.16631716 -0.026171254 -0.029801091 -0.0047034114 -0.009264527 0.0029480509 0.01792317 0.016558943 -0.018136857 0.0043673855 -0.028386224 -0.032007325 0.023519121 -0.10053091 0.004676351 0.042006586 -0.010874956 -0.030792598 -0.04907715 -0.037486684 -0.009266146 -0.010463295 0.03256825 -0.011254871 -0.00071555516 0.025876548 0.022738915 -0.020486582 -0.061239846 -0.011966615 -2.9088094e-05 -0.011786936 0.029562488 -0.0064853514 0.029861642 -0.046621934 0.023425365 0.013551028 -0.029387923 0.0007523797 -0.03436871 -0.02713273 -0.051556215 -0.015615425 -0.018970653 0.00162882 0.00817022 -0.0059088953 0.002417452 -0.0013696679 0.029013772 0.0037396667 0.035730474 -0.016626006 -0.07405188 0.030729853 -0.012019848 0.0101659335 0.019682879 0.00957601 -0.026063815 -0.011757188 -0.012685528 0.01784347 -0.021171818 -0.00872832 0.006085209 0.02784184 0.012244852 0.009583614 1.4148709e-05 -0.006502571 -0.009144144 -0.038466934 -0.0039675445 0.039572723 -0.0287245 -0.03329611 0.027919104 0.009032134 -0.0005794281 9.23577e-05 -0.0031454682 0.0018740613 -0.011695493 -0.026884843 -0.0110954195 -0.0066494616 0.039262757 0.008719551 0.042543977 0.025607016 0.014259556 0.012501593 -0.009555843 0.00091753335 -0.016487667 -0.015684739 -0.032439593 -0.0082724625 -0.00859462 0.012758485 -0.026290346 0.0045074257 0.01440664 0.0114692375 0.03265447 -0.012801554 -0.0080665825 -0.0022675195 -0.02202187 0.024004806 -0.018743537 -0.026110103 -0.0081312 0.013655467 -0.012615982 0.032853544 -0.026169525 -0.023361774 -0.0032747816 -0.010764065 -0.0032111893 0.012012107 0.012231671 0.008702761 -0.002523717 0.024070604 0.024884574 -0.004450936 0.016248966 0.0039286464 0.00962376 -0.0017250439 -0.015167193 -0.0074398853 0.0157924 -0.0043660225 0.0077921846 -0.020352626 0.03411054 0.014832622 0.011132609 0.034152173 -0.0065979054 -0.002269956 -0.0037536717 0.018073417 -0.010820114 0.010245783 0.00046150037 -0.024485191 -0.0072288243 0.041958295 -0.0035475828 0.0087293675 0.023275323 0.026344411 -0.025348475 -0.002149473 0.010442996 0.00084434036 -0.0005100946 0.015733775 0.025656875 0.028655661 0.030692935 0.003445822 0.019475464 0.013204258 0.005398536 -0.004399387 0.027612673 -0.010494315 -0.0041805445 -0.020721652 0.018546423 -0.007965025 -0.000758018 0.0007633282 -0.017864184 -0.005425743 -0.007869201 -0.020801736 0.012569207 0.0151373 -0.024109848 0.011185643 0.0037288817 0.025105996 -0.01893211 0.027648026 -0.0047201687 -0.008929084 0.021307273 0.0052355207 -0.017499257 0.008591409 0.034697898
in 0.11173027 0.16418038 -0.047730215 -0.019115394 -0.00064883643 -0.033095006 0.0033975535 0.0055882395 0.00355621 -0.054866157 0.006650856 -0.031669922 -0.012188138 0.027316052 0.00034028193 0.022429692 0.021541022 -0.03747599 -0.05709365 -0.012221477 -0.041387845 0.012701742 -0.004766596 -0.04569426 -0.02097665 0.0025179663 0.07339261 -0.017039381 -0.022908991 0.036716923 -0.017738512 0.0055260644 -0.046947874 0.060516138 -0.031513784 0.01865413 -0.01007861 -0.010554708 -0.052207686 0.014012332 -0.00038050275 -0.018533288 -0.012079928 -0.07099961 0.04101743 -0.004758367 -0.024223832 -0.0036580516 0.0022716932 0.023360824 0.028098075 -0.043917462 0.00510095 0.017922064 -0.002615498 -0.027190264 -0.021583151 -0.0032779519 0.00366305 -0.015436045 -0.024129357 -0.00403388 -0.015912592 -0.0039315126 -0.05942298 0.008455348 -0.0048136353 0.013654298 -0.0074918247 -0.02487806 -0.015405496 -0.0718996 0.009489671 -0.025036931 0.063415594 -0.008080082 0.019569002 -0.054364048 0.03285071 0.01213343 -0.03127466 -0.06852169 -4.3051867e-05 0.010284645 0.0128929475 0.01726746 -0.053511962 0.0060643554 0.026669947 -0.0025109716 0.027399022 0.05610549 -0.02982282 -0.027888045 -0.00089105626 0.0020970188 0.024921246 0.04104498 -0.026832525 0.01199323 -0.027059497 -0.028261038 -0.0106579345 0.029378278 0.059256732 -0.0112529965 0.0031138305 -0.028708672 -0.010432216 0.009563092 0.024540065 -0.021588694 0.009657249 -0.027611898 0.025077311 0.010403487 -0.00467546 -0.025225682 -0.01125559 -0.0019869246 0.022748461 0.02158227 -0.05789167 -0.040647574 0.00799304 -0.0057504256 -0.03558331 0.018261226 -0.022137603 0.02217548 -0.0044357674 -0.015589726 0.03484629 -0.031488225 -0.02475016 0.05480569 -0.019039825 -0.020402176 0.027021624 -0.013783915 -0.042157136 -0.006956591 0.03962751 -0.013701868 0.0057711643 0.02118593 -0.02556641 -0.060983427 -0.001784579 0.0042031663 0.033283748 0.026322283 -0.021580622 0.039395057 -0.050857443 -0.011775013 -0.050691497 -0.0013827968 0.020095658 0.011490205 0.010705692 0.014228413 0.03026688 -0.00092978554 -0.0074819042 -0.015284347 -0.036441043 0.034207013 0.021085396 -0.017013375 0.023602499 0.01707203 0.0049039777 -0.009933614 -0.014344632 0.012541147 -0.06394214 0.0005131777 -0.0015642237 0.039200995 0.061428916 0.009062683 -0.00576781 -0.016323028 -0.041154213 0.02429884 0.043677688 0.018881042 -0.017907001 -0.041594207 0.034267873 -0.016271453 0.011902275 -0.06264771 -0.0006350639 -0.053418454 -0.023351016 0.0058643254 0.05107856 0.0018959104
to 0.10723771 0.1513756 0.008514417 0.028507695 0.009308954 0.05358027 -0.026204333 0.050900653 0.0032641508 -0.014676758 -0.014214411 -0.020942284 -0.03600486 0.009965707 -0.074711405 0.028312195 -0.01877502 -0.0022110918 -0.01585602 -0.03834223 0.0066774255 -0.0005725627 -0.01965862 0.016043369 -0.048483387 -0.025127007 0.07807443 -0.003725097 -0.05971228 -0.025824197 -0.057249185 -0.060856216 0.0055093635 0.11224942 0.03807351 -0.033955347 0.026728768 0.015417954 -0.022218972 -0.010420952 -0.011949139 -0.043913085 -0.03352014 -0.039224584 -0.029991522 -0.015505103 0.059429307 0.03629268 -0.014695519 -0.0816822 -0.025043845 -0.0678871 -0.023511363 0.021623481 0.029989062 0.00011959491 -0.0014644752 -0.009224656 -0.029597618 0.019892244 0.081713974 0.015868967 -0.006326178 -0.09737837 0.03363302 0.0050395047 -0.0073565417 -0.049521066 -0.010027602 0.05069387 -0.032700427 -0.014743836 -0.015041999 0.015173918 -0.059323955 0.041890543 0.008286694 -0.026853777 0.039330445 0.013927245 0.040473726 0.0033360217 0.028132116 0.020200716 0.05321758 -0.052219108 -0.013312337 0.022863733 0.01891318 -0.027280703 -0.013397189 0.00028960872 0.029662564 0.031737022 0.010215747 0.012832812 0.020055933 0.048701897 -0.013758453 -0.004114168 -0.012557767 0.045114968 -0.033545833 -0.03142254 0.022742255 -0.026921643 -0.07858277 0.038922872 -0.014623103 0.024045201 -0.016227527 0.03709577 -0.030493956 -0.000703712 0.0030837988 0.0072462093 -0.004765158 -0.045143362 -0.054489817 0.0039315205 0.016134676 -0.049707573 -0.032550972 -0.050316777 0.009169699 -0.052868824 0.006545349 0.008106507 -0.011770955 -0.052626144 0.013167698 -0.03363328 0.0049209706 0.017322294 0.037194382 0.004050587 0.0097844135 0.028026965 0.099485315 -0.03472352 -0.017419728 -0.042160522 0.038679015 0.05504525 -0.087474264 -0.02797398 -0.006565937 0.03206851 0.042788852 0.10020755 0.028458249 0.044584528 0.030674206 -0.01783578 0.04971996 0.008534123 0.005680737 0.052591402 -0.0026481631 0.01931467 -0.0973826 -0.06363597 0.07488039 -0.07154485 0.07123626 0.016325718 0.0007618663 -0.028071154 0.012568478 0.016881058 0.019380156 -0.010204909 0.032612097 -0.020057414 -0.018825302 0.021938894 -0.021423815 0.01590782 -0.0036794057 0.022214286 0.033526834 -0.014585019 -0.055952027 0.032513414 -0.008290037 -0.028634444 0.04349809 0.005218533 0.0101623405 0.016244143 -0.060337745 0.015430073 -0.017411493 0.093033075 -0.026423892 0.011203423 0.035915464 -0.0065140747 0.05225513 0.060016807
a 0.10496981 0.14321792 0.0105765 0.007834617 0.0055167144 -0.022502499 -0.05399368 0.04876376 0.069917664 -0.02785975 -0.028054465 0.0041066725 -0.0051080436 -0.0097235525 0.0057526925 -0.055499543 -0.0030061058 0.038348157 0.07532316 -0.073747344 0.021743074 0.025613729 0.06746052 -0.026898304 0.018581714 0.01063135 0.032708973 0.0060537974 -0.015155039 -0.07889841 -0.015635727 -0.020700367 0.11944041 0.006207225 -0.05695026 -0.06765788 0.060947113 0.022367133 -0.010454618 -0.015642827 0.017201008 -0.02963091 -0.022601385 -0.062776946 -0.024221376 0.04828177 0.01814453 -0.08482758 0.015481807 -0.044967726 0.108382344 0.04540803 0.008607576 -0.0014976788 -0.033657104 -0.02005955 -0.0028199123 -0.035977937 0.039698813 0.030862052 0.033365462 0.042369924 -0.008790963 0.03059335 -0.023514448 0.0019017186 0.046555914 0.026885517 0.00683352 0.015143496 0.03356929 0.025963515 -0.011607112 -0.021203246 -0.023483105 -0.006165975 -0.011213504 -0.029167969 0.029396994 0.024533361 -0.0017515093 -0.030688055 -0.004664867 -0.0060173995 -0.053582143 0.073884994 0.066594936 -0.029238163 -0.08969047 -0.0068183416 -0.031062528 0.023157543 0.019537454 0.04138676 -0.02370224 0.038435914 0.02238438 0.04929169 -0.0046832673 0.046080515 0.020822596 -0.007485531 0.04160176 -0.00341699 -0.02646949 0.03988597 -0.04808289 -0.05870099 0.0720685 0.03465333 0.024634676 -0.026769847 -0.0050626905 0.004734465 0.041015487 -0.017546084 -0.06816555 0.058357775 -0.006157825 -0.01188506 0.03155056 0.032815885 0.020967958 0.013402258 -0.057187162 -0.012396794 0.07903172 -0.03180198 -0.026763534 0.06840701 0.044021588 0.029382117 0.0012810155 0.07222766 -0.0520989 0.031672515 0.012758027 0.006509342 -0.05803077 -0.018541427 0.12364887 -0.01774406 0.039585337 -0.012538372 0.04887115 0.035510484 -0.03324374 0.0131380465 -0.04872959 0.0042095454 -0.013544358 0.025572648 0.056380067 -0.008352738 -0.031262927 0.023194943 -0.012692268 0.0034122036 -0.012800021 0.011939062 -0.037531495 0.01045907 0.033298824 -0.00096659485 -0.03762685 0.026972352 -0.008408258 -0.0063698785 0.0148938885 -0.035879474 -0.020189103 -0.058834475 0.07469143 0.027632134 0.06562291 0.011037225 -0.036084034 -0.01693032 0.04505257 0.0161652 0.013309794 0.038266145 0.02167353 0.016076323 -0.009794726 0.0039291685 -0.016995545 0.07202151 -0.007439166 -0.009795579 -0.015203182 -0.028891396 -2.3533725e-05 -0.012077349 0.0035674188 -0.029488822 0.06003467 0.0033079956 0.040961068 -0.03764313
is 0.090838164 0.116269 0.026305908 -0.03417534 0.03117061 0.0024933312 0.0091162585 0.01214365 0.119015 -0.014428109 0.06019702 0.011226576 -0.078048676 0.05371273 0.09026044 -0.053545646 -0.064245395 0.051646974 0.08182766 0.18203223 0.022230834 0.021467753 0.012969948 0.006319251 0.027338717 -0.06227776 -0.00435986 -0.024385933 -0.046657544 -0.011525364 0.083317526 0.015200966 0.04903949 -0.04391887 0.06249087 0.024084989 0.0017426274 0.046109363 -0.044159774 -0.021626897 -0.032220658 0.014171008 -0.036491554 -0.049750444 0.0057358993 0.020615535 0.04737599 -0.051952057 -0.026512282 -0.019301366 -0.0081848 0.004354064 -0.008002202 0.010180925 0.017900955 0.050765157 -0.0260283 -0.017019385 0.027099395 -0.029916955 0.006068926 -0.035356056 -0.02955018 0.05399988 -0.008340849 0.035763312 -0.023006914 0.035082262 0.014151868 -0.034277793 0.023567373 0.024007654 -0.034676544 0.049034394 -0.018548252 0.05028536 -0.0027379456 0.024622612 0.051698696 -0.03515171 0.017495442 0.0037747438 0.027413426 0.01976282 0.011631923 0.04945364 -0.025583243 -0.0014092013 -0.022653311 -0.052055836 -0.0313727 -0.027952183 -0.0076113623 -0.037920203 0.0061568874 -0.06218126 0.04433474 -0.0059886463 -0.009480052 -0.026180051 0.032426756 0.009743162 0.03561023 0.011004429 0.026554761 0.021803578 -0.013224132 0.059076034 -0.018770812 0.03366555 -0.005669146 0.012790842 0.014470261 0.05515849 0.041923624 -0.0036436582 0.05928155 -0.025996583 0.00687051 0.00068666134 -0.03319107 0.0011861913 0.018811842 -0.023590012 -0.028581178 0.016446056 0.0759818 0.03050544 0.02025289 -0.0024361692 -0.004171123 -0.0019247775 0.025177315 -0.04326037 -0.009131852 0.0039755525 0.0003201461 0.02421828 -0.04133361 0.0053934925 -0.035052076 0.011982448 0.056953456 -0.012080738 0.011527733 -0.014938099 0.020323968 -0.009584027 -0.011036745 0.0042567733 -0.035851393 0.014889497 -0.037093766 0.009252365 0.050717853 -0.011095842 0.014966466 0.017162949 0.035617236 -0.040213425 -0.004663617 0.0105587905 -0.040855322 0.007098515 -0.020983381 -0.029832862 -0.007404781 -0.01350448 -0.036183402 0.018719222 0.02057195 0.044444527 -0.031893384 0.0031242904 0.02459966 -0.05563739 0.02705213 -0.017489212 0.009808501 0.025607053 -0.012883537 0.033635933 -0.04015262 0.024596432 -0.019629797 0.014886799 -0.034891218 0.025300289 -0.010950937 0.039802436 -0.035297357 0.0024655685 -0.043237835 0.02429367 -0.009509463 -0.020850355 0.011230454 0.036180962 -0.016229512 0.0020643314
as 0.08926676 0.10772648 0.013680749 -0.0034333745 -0.016711492 -0.023863964 0.015993832 -0.00020254756 0.023268815 -0.007684567 0.030640725 -0.026413666 -0.019359445 0.031777043 0.0065958044 -0.01617749 0.023890026 0.018169036 -0.044319253 -0.0038034865 -0.02023327 0.0013481132 -0.010883269 -0.020724008 0.01244362 0.0041961907 -0.017106742 -0.00622491 -0.025958855 -0.05601519 -0.02486477 0.008276398 0.010076124 0.0011559015 0.025072388 0.036686726 -0.020971268 -0.007703556 0.021365618 -0.008250724 -0.025480576 -0.012073512 0.054105412 0.028036844 -0.019769067 -0.0068106647 -0.0035039282 -0.00061038695 0.042440083 -0.03198963 0.03152475 -0.015890064 -0.071529895 0.008563021 0.030995537 -0.019397508 0.06567504 0.006853929 -0.060610518 -0.015270904 0.030755991 -0.027871884 -0.021376941 -0.0067539425 -0.002783112 -0.014183207 0.08445236 0.025047218 0.023966266 -0.01734166 -0.007244702 0.008561388 0.010221331 -0.09292169 0.009253409 -0.06761299 -0.022387953 -0.01662222 0.010477045 -0.021646539 0.0018606343 0.0013376287 -0.03208401 -0.022959208 -0.01484479 -0.05844696 0.053647783 -0.0158271 0.004331516 -0.0053444817 -7.234805e-05 -0.019399593 -0.022582721 0.027183851 -0.038857795 -0.0071081147 -0.03636518 0.04899761 0.025225984 0.0066636354 -0.04728629 0.011693535 -0.04201884 -0.013999049 -0.048366223 -0.015398636 -0.02541403 -0.009657515 -0.011910291 -0.008268526 0.008381694 0.007947649 -0.0025154895 -0.015611203 0.07819059 0.054067567 0.02675983 -0.040003058 0.065148585 0.036766265 0.043712955 -0.020570876 0.037452444 -0.022038482 -0.027822837 0.01272139 0.053094953 0.03284837 -0.01978978 -0.012597165 -0.06681658 0.019755183 -0.071609214 -0.028422095 -0.0072199027 0.08777013 -0.02713975 -0.06482739 -0.02373823 0.031507708 -0.009661736 0.06392906 -0.018574724 0.073463485 -0.03973555 0.060650278 0.017990233 0.06704214 -0.0243521 -0.018798895 -0.027014412 -0.011453362 -0.01802632 0.013617013 -0.03824524 -0.022293769 -0.019586638 0.016282255 -0.062926546 0.014798974 0.0033723707 -0.010881309 -0.007673893 0.02341827 0.0018172787 0.0065796734 -0.0009992414 0.012121657 0.031159664 -0.02803454 -0.0014462813 0.00041408377 -0.05290147 -0.0043720924 0.03310622 0.0059831524 -0.004042374 0.06018864 0.013677168 -0.04268249 0.012142043 -0.026407769 -0.023355974 0.02819521 -0.034632552 0.017586868 -0.014444087 0.008418937 0.012063752 0.02221013 0.035329632 0.029219404 0.009836272 -0.0067191077 -0.044984777 -0.026235975 0.031089833 0.046598863 -0.04441143 0.032413635
was 0.088047005 0.11319508 -0.040785972 0.047305845 -0.05063152 0.008085503 -0.024860209 0.01119109 0.037073486 -0.04980105 0.00806216 -0.024211459 -0.06453752 0.08301163 0.051570244 -0.06015183 -0.1004765 0.0900222 0.07708135 0.1923156 0.04743092 -0.005153905 0.04381995 -0.02660998 -0.020445455 -0.022652632 0.009944056 -0.012034941 -0.021979485 -0.011814165 0.06920502 0.018965531 0.030959524 -0.0064077605 0.012565862 -0.0001584525 0.013742986 0.03259217 -0.037111204 0.010428937 0.0118054515 0.0007862835 -0.025127744 -0.019124009 0.06175526 0.014644857 -0.019143546 0.050014142 -0.0041775415 -0.018934812 0.007075232 0.03887793 -0.03875207 0.0011213147 0.012439837 -0.018462246 -0.04181946 -0.040578764 0.032924227 0.0049485783 -0.0128969075 0.021102628 0.012139004 0.0607574 0.03384493 0.040190283 -0.007829873 0.05861044 -0.018996088 0.0014009728 0.02099552 0.035162687 -0.008359147 -0.04209713 -0.0028128126 0.054144144 0.04289341 0.030041702 0.005944841 0.059547525 -0.006906869 0.030336069 0.017790778 0.01914841 -0.0011470013 0.0368536 0.004667701 -0.018734742 0.02004235 -0.012286717 -0.025304252 -0.024099935 -0.0043204045 0.04460861 -0.0019729394 -0.03148583 0.032775275 -0.022005104 -0.034655184 -0.03215147 0.015759688 0.0058305706 0.025456032 0.012276163 0.061714776 0.022794481 -0.0011215588 -0.008233581 0.025009708 0.015617833 0.0028943187 -0.040414944 0.008452318 -0.047538128 0.027966583 -0.037947956 0.026665451 -0.008996896 -0.008599283 -0.01740637 0.019345175 -0.012531021 0.021570226 -0.012435642 0.02780765 0.0017492167 0.030123109 -0.022001393 0.05692669 -0.016492544 0.0108940005 0.0037925565 0.015498903 -0.04098099 0.0011113448 0.02279682 -0.01061547 -0.042410266 0.009990277 -0.0015460019 0.016168185 -0.017644376 -0.005690294 -0.0020447206 0.011577093 -0.035189588 0.027463453 -0.04096756 0.04501866 0.020745378 -0.018755445 -0.03793723 0.003463583 0.018886728 -0.016028615 0.02617383 -0.009117583 -0.00030654526 -0.021955954 0.038124938 0.0046358546 -0.001815534 -0.055498816 -0.046956766 0.0028976267 0.012579103 0.038531974 0.003920117 -0.007818778 0.01157868 0.047193687 0.009000083 0.009895331 0.03985542 0.016435485 0.027692731 0.011176905 0.017934205 0.0009271642 -0.011202778 -0.0452342 -0.009678607 -0.042351406 0.007843379 0.008311461 -0.013824813 -0.054283258 0.031481605 -0.009697139 0.00062507414 0.00471679 0.011292762 -0.018967574 -0.0022329406 0.016889825 -0.0030885176 0.01575401 -0.005094316 -0.0514835 0.025237774
) 0.084564395 0.096436955 -0.05329826 -0.0021979187 0.044392183 -0.01732755 -5.3110875e-06 -0.008513492 0.06404893 0.0029694682 0.08073367 -0.040682748 -0.02890985 -0.013267091 -0.03280358 1.8108281e-05 0.033221263 0.030957868 -0.002838344 -0.05055651 -0.017200032 -0.015433293 -0.037602056 0.00517513 0.032297574 -0.012598375 0.028101847 0.03981038 -0.0060666455 -0.029926226 0.0076738377 0.02605768 -0.0013599299 -0.0029451994 0.007126722 -0.04822495 0.012721792 0.0076501565 0.010521071 -0.010392762 -0.045008276 -0.0067174495 -0.03992643 0.025186207 0.016526664 0.01404539 -0.025056245 -0.007157048 -0.017341748 0.0055528264 -0.017707665 0.00062574446 0.007910033 0.03975474 -0.01520852 0.015370963 0.020072548 -0.00081306405 0.0058792713 0.0056205173 -0.06246737 -0.036011007 -0.019626046 0.027658803 -0.035307165 -0.05215115 0.00095128926 0.040356755 -0.026385639 0.04341993 0.031598385 -0.0038867614 0.017701782 -0.02135888 -0.003405146 -0.025454398 0.0053152507 -0.022282973 -0.015000978 -0.022847177 -0.0366423 -0.0023264235 -0.021564791 -0.01070894 0.0103256535 0.014419158 -0.0064317067 0.00062535924 0.013582328 0.01367542 -0.0362753 0.011798017 -0.0073703444 0.009161906 0.023541763 0.01618644 -0.026737679 0.0023390837 -0.025847467 0.017495247 0.014066946 -0.048855342 -0.01243176 -0.01522648 -0.008780505 -0.039300118 -0.026588298 0.0043725474 0.012539559 0.01988369 -0.003019839 0.005987156 -0.019701835 -0.017322266 -0.01568187 -0.039446753 0.017522067 -0.0017179985 0.009474994 -0.017377805 -0.017705703 0.019547941 -0.021317618 -0.006981257 -0.0073930686 0.019795233 -0.015535318 -0.01428199 0.017708365 -0.008650081 0.012600438 0.004789549 -0.019510053 0.009388279 0.041392293 -0.018371785 0.002395479 -0.010532092 -0.015037 0.0077445838 0.00990892 -0.020386975 -0.0049767494 -0.043444846 -0.00028281382 -0.033457316 -0.012036719 0.0029975122 -0.0006716334 0.014709624 -0.031542245 -0.005930343 0.018385513 0.014608628 -0.026724538 -0.0017043599 0.011144024 0.005297816 -0.0005244554 -0.027619736 0.022371946 0.0023640038 0.012229624 -0.0025763672 -0.033526596 0.0016615036 0.019492686 -0.0056995926 0.023156743 0.032067273 0.026692841 0.02187595 0.0039887833 -0.000794585 -0.010295404 0.0005870661 0.012860879 0.017897941 0.021581851 -0.016363962 0.00898374 0.015062255 0.0058926605 0.0012164816 -0.01534977 -0.00078433665 -0.00028919725 -0.0036736429 0.012681674 0.024043404 -0.0072112563 0.017923824 0.040610295 -0.053050037 0.012673111 -0.0057679014 -0.010260689 0.009155125 0.004098764 -0.021536415
( 0.08525371 0.106052384 -0.059006326 -0.021338256 0.046562 -0.03809532 0.046089545 -0.0164677 0.07804555 0.023356307 0.09524421 -0.033916373 -0.051411696 -0.038195893 -0.054897245 -0.014149013 0.022807848 0.04024803 0.018081523 -0.014073424 -0.021301145 -0.02525093 -0.02747043 0.021987094 0.0465103 -0.009644471 0.028479045 0.04396162 -0.015433105 -0.048165035 0.028994238 0.04793744 -0.009544501 -0.028787132 0.01041912 -0.03448117 0.012013398 0.009353854 -0.0003281939 -0.018568747 -0.07067968 -0.024899542 0.0008404289 0.016157988 0.038580384 0.00799595 -0.019091243 -0.0057291957 -0.009544918 0.013955348 -0.036483996 -0.0020459383 0.0063932533 0.051490262 -0.019683702 0.03562147 0.012493438 -0.01330218 0.007257501 -0.022517255 -0.071442395 -0.0008788191 -0.029031094 0.0042204 -0.051166482 -0.03066202 0.029427988 0.0320442 -0.010137596 0.033717293 0.0512105 -0.0059954254 0.045878883 0.021429515 0.021815173 -0.023863284 -0.014199482 -0.027524104 -0.03929792 -0.02822177 -0.03952844 0.00066565274 -0.030317664 0.0021607776 -0.005606295 0.033507165 -0.005657613 0.0018584486 0.032134257 -0.009463926 -0.018610401 -0.015029408 -0.025348704 0.047097996 0.028914113 0.003667785 -0.05368844 0.024354609 -0.004536226 0.0064832456 0.017607078 -0.04873119 -0.0016101735 -0.039071523 0.019566981 -0.027767077 -0.025901297 -0.00484816 0.019469991 0.027344283 0.016479678 -0.023170684 0.017196143 0.013527821 -0.01870476 0.010856687 0.041942593 -0.0061612083 0.0034249811 -0.012685051 -0.0026592135 0.0021560194 -0.015424069 -0.028267393 -0.023583032 0.060603816 -0.014120442 0.004874947 0.012725145 -0.04486961 0.021503644 0.040531382 -0.0031365645 0.02695739 0.038747583 -0.015892128 0.008284172 -0.00052494876 -0.02311646 0.059458334 0.009854743 0.0009950827 -0.00017882812 -0.05733438 0.020970907 -0.02222723 -0.012354997 -0.017850056 0.009101189 -0.0068802875 -0.029330714 -0.012006193 0.0002289318 0.016340641 0.0014582514 -0.019062808 -0.008650283 0.005215054 -0.0087043485 -0.04058626 0.0064319954 -0.03581705 0.0023191443 -0.02183999 -0.022564435 -0.009584681 0.016442465 -0.0068407883 -0.023338405 0.02191297 0.026311351 0.026446402 -0.013999087 -0.0162449 -0.022521857 -0.016472097 0.05354518 0.013764283 0.044629212 -0.013620662 0.023926433 0.016365867 -0.001483569 -0.0027730055 -0.012194254 -0.029844336 -0.007835213 0.0260389 0.0075233355 0.0018616447 0.0005775102 0.00957379 0.046997324 0.015616386 0.0030753121 0.023237912 0.005479918 0.023870034 0.02834356 -0.013256821
by 0.0854531 0.105641186 -0.02516339 -0.0010982469 -0.021194797 -0.013842313 -0.004726059 0.026274566 -0.0116179325 0.018774075 0.0014146396 -0.08328285 -0.012113557 0.0392767 -0.019971091 -0.082716055 -0.008716828 0.065580435 -0.064206176 0.024901584 -0.011382395 -0.030443694 0.050195362 -0.045661356 -0.046710424 -0.040559884 0.0113682635 0.052916076 -0.0009161881 0.0060966224 0.019932507 -0.0019439049 -0.028532848 0.018930675 0.08286585 0.039805844 -0.038669404 0.002631717 -0.05542675 -0.03863915 0.013726655 0.039852813 0.026748888 -0.021601092 -0.016960355 -0.0046876688 -0.0018487717 -0.0045332923 0.012828401 0.013216558 0.027634514 0.044372797 0.00530059 0.021362657 0.0011931558 0.024772584 -0.012052601 -0.033969946 -0.018175744 -0.012187466 -0.04802803 0.0047644656 0.05993091 -0.028610107 0.02542952 0.0117401015 0.025880909 0.034806944 -0.0037220896 -0.011488669 -0.023371115 0.019450748 -0.014998504 0.007406399 0.03852193 -0.029156776 -0.076271385 0.05963548 -0.026364405 -0.022275476 0.001274046 0.04946442 -0.010531655 -0.018650208 -0.018542556 -0.018006217 0.01771595 -0.022162514 0.041803326 0.0019136628 -0.029032633 0.021842498 0.025894504 0.005742582 -0.008368469 -0.005325153 -0.037975963 -0.039508644 0.0019883628 0.07093829 0.021839382 -0.0072120763 0.018548027 0.0091025615 -0.0064139594 -0.03607001 0.0162851 -0.0003830919 -0.0012883377 -0.024028514 0.028891806 0.020211415 0.047599908 0.009460224 0.013286016 -0.044305682 0.06278598 0.0074051693 0.054664753 0.046043783 -0.013225973 0.0016660772 0.08522687 -0.012642508 0.0019729026 0.043148957 0.019373044 0.022401975 0.07340131 -0.037361253 0.011424055 0.040045455 0.03311802 -0.031995498 0.024061626 -0.06389786 0.004015676 -0.010887128 0.032620277 -0.013153799 0.06759191 0.03974892 -0.021732636 0.012674848 0.016578937 0.046839654 -0.040371913 0.044084173 -0.02517741 -0.016942877 -0.07716172 -0.009783596 -0.007983106 -0.028149122 -0.010800287 -0.016320588 0.041474167 0.029389968 -0.040837366 -0.011534789 0.010885466 -0.0010725656 0.03723063 -0.011485215 0.03325228 0.046069633 -0.0019365135 -0.012973616 -0.03000799 0.01028685 0.014169588 -0.016084796 -0.10231456 -0.011078302 -0.055769153 0.0120108 0.025758037 0.0039673103 -0.06267405 0.011078577 -0.00037990033 0.03004571 0.029837156 0.04854692 -0.057358414 0.02197078 0.023510652 -0.045296784 -0.010624702 0.050303873 0.0055366405 -0.011244465 -0.0135758575 -0.02985018 0.018276287 0.014382789 0.04638542 -0.004928798 -0.006716752 0.033198368
for 0.08712249 0.10766359 0.012317467 -0.0014061948 0.017653516 -0.048962902 0.03148852 0.039511975 0.014783267 0.018921368 -0.04268669 0.03161171 -0.025917113 -0.015227781 -0.028887227 0.0009650778 -0.00044389506 0.017121188 -0.031999543 -0.009145283 0.012420943 -0.002298226 -0.06193566 -0.021782415 -0.012807902 -0.005402025 0.008400324 -0.024521675 -0.041802492 -0.060221422 -0.03090821 -0.0064472603 -0.013618621 -0.02260768 0.023046756 -0.004961199 -0.019479366 -0.034222826 -0.036949575 0.00032980455 -0.03521119 -0.091584824 0.031823125 -0.031355135 0.032414984 -0.02464742 -0.008308647 0.013536005 0.017710693 -0.037393767 0.026890133 0.018766282 -0.016268928 -0.07093127 0.012829838 0.0040137973 -0.018549023 -0.005061516 -0.0028001915 0.017690063 0.056012735 -0.004104685 -0.042283267 -0.041566823 -0.008813175 0.00047344613 -0.0072709266 -0.020059776 -0.013333854 0.029319165 -0.012353436 0.070288405 0.04154974 0.046715256 -0.051806584 -0.036669973 -0.030042024 0.0057378593 0.020313144 0.005659844 -0.0333208 0.006335598 0.0072986344 -0.0072281808 0.010186183 0.06633669 -0.06673331 -0.034702294 -0.0070080305 0.037562136 -0.0024190526 -0.025103638 0.0004152357 0.0032705937 0.029637497 0.007836576 0.023874667 0.039780702 -0.020190816 -0.0061377464 -0.02452788 0.084541045 -0.07229822 0.024304552 -0.004298807 0.00316378 -0.048460722 -0.016543888 -0.034190703 0.016102837 0.05996472 -0.0018070993 -0.053230755 0.014400516 0.027262472 -0.0055291434 -0.005185983 -0.025249418 -0.019812288 -0.017114447 0.009858143 -0.004261584 -0.019327322 -0.005850299 -0.012795266 0.04913063 0.08584718 -0.043656256 -5.4858894e-05 0.035241496 -0.014958637 0.028287796 0.0014622204 -0.009143625 -0.031638112 -0.041627184 -0.021498227 0.026791679 0.03506215 0.012018744 0.044085585 -0.034756225 -0.038871456 0.037512414 -0.09873191 0.018276576 0.012908398 0.005935357 0.056105115 -0.07580714 -0.020845233 -0.02805946 -0.037554637 -0.01313605 -0.010640887 0.0022023942 0.006013047 -0.057937395 -0.020513825 0.08375393 0.015610205 0.020822229 -0.006116248 0.04299847 -0.04999207 -0.017670352 0.00545475 -0.005721266 -0.008202994 -0.018026754 0.01927748 -0.027839478 -0.04658421 -0.036157284 0.030280769 0.008721342 -0.01848148 0.0019119357 -0.021888431 0.04751939 -0.009049174 -0.00261379 -0.0008671486 0.001067428 0.04303305 0.04512966 -0.0016664517 0.04929245 0.026870372 0.018755957 -0.018756915 0.009066328 -0.009061311 -0.00010634389 -0.026033722 0.06920595 -0.008114507 0.032757107 0.048293013 0.018752916
that 0.08641751 0.10059043 0.051930487 0.04315028 -0.002426723 0.0014184654 -0.023730852 0.028635088 -0.007037851 -0.017137744 0.021293905 -0.011821568 0.03180354 0.026341688 0.02028737 0.025159897 0.03263749 -0.0055393535 0.0014751338 -0.06507896 -0.02019663 -0.049687922 0.027767006 -0.01329899 0.006828518 -0.0022274803 -0.020880306 0.00999201 0.04226409 0.056603123 0.0073701916 -0.047893234 -0.00400037 0.026713517 -0.048998583 -0.02459183 -0.00879656 -0.024630541 -0.002219209 0.006182711 9.991481e-05 -0.007353056 -0.03160572 -0.012672438 -0.07397927 0.07269223 -0.0062859445 -0.02802021 0.02245948 0.015399513 0.005602851 -0.047293164 -0.031304963 -0.091917455 0.021109004 -0.046537068 0.00043044135 -0.0021402892 0.02475359 0.020379374 0.02225087 -0.0049570147 0.055493645 -0.08002968 0.02032314 -0.007716188 -0.025398226 0.016544925 -0.009202779 5.9058697e-05 0.0154552795 -0.0240619 -0.04387488 -0.009006947 0.0015581142 0.020739954 0.0004893605 0.040567975 0.054738324 -0.0018192097 0.013272412 0.049101163 0.00013836627 0.013185583 -0.016269835 -0.05710441 -0.05025011 -0.01484474 -0.045160163 0.020822493 -0.006714546 -0.0063691866 0.007863741 0.00025839484 0.026828585 -0.02731259 0.0067839357 -0.023999538 0.011597717 0.04748772 -0.0028889491 0.012034405 0.038820725 0.0048865126 0.012970208 0.008244644 0.0108695375 0.017695133 0.011573625 -0.025169691 -0.04609156 0.018122341 0.0019022481 -0.020752301 -0.0016325883 0.008662634 0.012973744 0.0007979901 -0.012022166 0.0060271285 -0.059738677 -0.04096778 -0.009878386 0.008537945 0.026140036 -0.06366628 -0.038950287 -0.012486021 0.0027182517 0.0022650985 0.030540613 -0.049695734 -0.02867763 -0.016490536 -0.010438845 -0.0087479465 0.02826461 0.0012210215 -0.004028207 0.0019972688 -0.023460183 -0.022435004 -0.008113016 -0.018573249 -0.016140366 0.02470793 -0.0056033423 0.019428922 0.032368742 0.05804348 -0.05522663 -0.044523995 -0.0045006447 -0.004113044 0.006154352 0.014696929 -0.010097608 0.025302958 0.0029852618 0.045539085 0.021164723 0.025166837 -0.009213725 0.03773491 -0.011939089 0.00042577126 0.009136987 -0.027366843 0.025193645 0.00080178527 -0.05510892 0.02621555 0.024644934 0.0012320789 0.03687606 0.013859343 0.021411497 -0.012527059 -0.04736321 0.020374902 -0.035989348 -0.025555115 0.0057731057 0.03372319 0.015428299 -0.02790822 0.0038053545 -0.026059756 0.022883883 -0.0325597 -0.0013096387 -0.0516646 -0.0076178014 -0.023154551 -0.010135466 -0.053164277 -0.006500646 0.016926613 -0.03856527 0.01513014
with 0.08420377 0.102359585 -0.0037830584 -0.008444821 0.010729658 -0.0038189627 0.038842205 0.005041817 -0.009213166 -0.0046941973 -0.022916159 0.011427181 -0.04579663 -0.0069601214 -0.07180431 -0.03190606 0.015263631 0.0021105593 -0.06606681 -0.00010297399 -0.043806337 0.02381703 0.02121436 -0.031592865 -0.036586482 0.0069484077 -0.004941164 0.0015711504 -0.023132147 -0.054305468 -0.03326558 0.031781748 -0.02043946 0.005067729 -0.02712888 -0.015921399 -0.023198415 -0.026765618 -0.0050691157 -0.0002272872 -0.0013980768 -0.059019554 0.012300037 -0.02698768 -0.022324461 0.011830612 0.0003998765 -0.023893759 -0.008461529 0.037504185 0.028868947 0.041536428 0.007010837 -0.009666279 -0.004661928 -0.009643238 -0.0035713785 -0.005563214 -0.01993676 0.03810623 -0.019369587 -0.008298368 -0.021031376 -0.007919837 -0.025399365 0.049793206 0.022596085 -0.019699521 0.027333006 -0.028282125 -0.04681632 -0.04600351 0.0047004013 0.022913292 0.0009385077 -0.02883539 -0.0032266134 -0.004068141 0.014290103 0.02110758 0.01680673 -0.056593694 0.027933199 -0.058919977 0.041397434 -0.010275307 0.02326778 -0.017629698 0.021397706 -0.041981075 0.0013138872 0.004327166 0.029888742 -0.040876396 0.0042324923 0.04899464 0.035537343 0.0026855948 -0.005427075 0.035733163 0.00607616 0.046605736 0.041203912 0.00094976986 0.03590871 -0.008460981 0.021749008 0.0036508795 -0.04465034 0.039367855 0.005983872 -0.049464818 -0.0003069396 -0.037306692 -0.0066979807 -0.014915668 0.016723743 0.0036186352 -0.018266663 0.05941032 -0.017048823 0.0051939907 0.022683041 0.017704586 -0.021834552 -0.028371165 0.03777728 -0.031719588 0.01160544 -0.04759032 -0.009033516 0.024010029 -0.057003345 -0.0225137 -0.03229092 -0.035626717 -0.078082494 0.026194206 -0.0035148002 0.014051345 0.023686208 0.054281604 -0.010588044 -0.023633681 0.07506804 0.037181538 -0.0019773063 0.010119053 -0.0787334 -0.0010346895 0.04363285 -0.0016961755 -0.040715843 -0.054729145 0.07087145 -0.014947943 0.03582658 -0.056864638 0.008929245 -0.04548526 0.013902116 -0.00833885 0.016872346 -0.035611223 -0.0076085534 -0.028305318 0.0064503057 -0.0033159046 -0.024448242 -0.022418909 0.030025126 -0.042314053 0.04250539 0.03268654 0.084630676 0.031455465 -0.018661894 -0.034919064 0.0028888006 -0.0136467 -0.044354603 -0.014479664 0.031223504 -0.05675742 0.024553575 0.063443616 -0.02798406 -0.0052558524 0.03125252 -0.033993363 0.0075530354 -0.0066187177 -0.012118732 0.00125271 -0.013874521 -0.044270486 0.035675507 -0.007753507 0.021030337 0.03413767
's 0.08169111 0.103028186 -0.04220548 -0.013453793 -0.06345558 -0.026933815 0.04909172 0.016539242 0.082079835 -0.008769263 -0.010656385 0.10300511 0.015669638 0.0053712367 -0.031894024 -0.03843995 -0.026492875 -0.016836895 0.076970845 -0.058065373 -0.06533257 -0.014763625 0.004295884 -0.0611527 -0.025480036 0.03680567 -0.09516842 -0.04830278 -0.025212217 0.013764782 -0.0860288 -0.0041293837 0.035876207 0.0005050342 0.014539309 0.027115913 -0.07273378 0.04894477 -0.023986911 0.032018714 0.12082055 -0.006960343 -0.060562897 0.015891334 0.05404041 -0.03346402 0.029864555 0.011918442 -0.08027157 0.030522952 -0.08182331 -0.004230314 0.0061072833 0.025097897 0.035700176 -0.010099049 -0.01867498 -0.0363554 -0.049253568 0.005325698 -0.103831224 0.022130812 0.031807415 0.014855841 0.010058355 -0.010931942 0.022794222 -0.031146595 -0.03224308 0.020822518 -0.005966025 -0.03446739 -0.030072507 -0.031469867 -0.02730496 -0.022008743 0.013057827 -0.029294655 -0.005576455 0.0140385395 0.0066591175 0.03821575 0.04199607 0.012006035 0.01823648 -0.03141676 0.008403816 0.028907312 0.07120612 0.011641152 0.01770871 -0.01581898 -0.040741727 0.0066589233 -0.015160368 -0.032493114 -0.005922835 -0.013957506 0.053770076 -0.011221576 -0.052038 -0.022126416 0.0051786043 -0.014713356 -0.017273227 0.04139856 0.044512622 -0.0023798025 -0.026233228 -0.023114001 -0.034515206 0.005522284 0.02547624 0.03437877 -0.03216334 0.025159137 0.012806926 -0.03420596 -0.017221019 0.0019579201 0.0032704456 -0.016173143 -0.0005597963 0.023477912 0.030528022 -0.0013357182 0.00900489 0.0065841503 0.055610303 0.010597935 0.045658287 0.05562936 0.01818625 0.0048726755 -0.019130353 0.03483483 -0.016618099 0.03059362 -0.019605136 -0.005004715 0.022441942 -0.007700688 0.03599191 0.038058136 0.0062873526 -0.042170826 -0.020831587 0.006433974 0.013778574 0.00030765528 0.029907098 -0.018416932 -0.0048425854 0.0009688874 0.012794276 -0.02851364 0.028441768 -0.0030812663 0.029637882 0.03625004 -0.030673489 -0.0022780437 -0.010440062 -0.009547201 -0.01650247 0.034670807 -0.03878118 0.021814464 -0.0065372586 0.01541273 -0.03680543 -0.028645307 0.0014045127 -0.04900811 0.015423664 -0.030581387 -0.02801991 -0.025848776 0.029408341 0.04540775 0.0444454 0.030883439 0.011795917 -0.026719103 0.009550852 0.00019972991 0.013473113 -0.0013539853 0.01026167 0.037159007 -0.0046149124 0.0150483595 0.0011750356 0.042820573 0.010620681 -0.010736589 0.022828503 0.028653005 -0.03243342 -0.02743192
on 0.08314886 0.103019014 -0.050038278 0.021821106 0.031311877 -0.013001742 0.016880194 0.029554173 0.032469176 -0.040815827 -0.024720747 -0.081451185 -0.0225077 -0.02078866 -0.04968437 0.061847042 -0.027001468 -0.022338217 -0.08654243 -0.027531214 -0.004587244 0.050249755 0.05002476 -0.04172546 -0.030036282 -0.046973262 0.04507191 -0.10517319 0.038711283 0.020856144 -0.015671195 0.012964215 -0.069468364 -0.0034108039 -0.034267906 0.05568251 0.04449412 0.024387868 -0.016338024 0.014446813 -0.010725792 0.0063515827 0.032452222 0.047442373 0.03528976 -0.083485544 0.011265217 0.032050934 -0.044648666 0.053095948 0.0055062296 0.027143504 0.0072578783 0.020729288 0.01906417 -0.04601457 -0.021953786 -0.027122278 0.0126371635 -0.02069969 0.08339995 0.0107026035 0.014751914 -0.03396669 0.006344009 0.037868332 -0.076177835 0.0038109976 -0.0450171 -0.030322399 -0.019720005 0.04050119 -0.0791279 0.022714086 0.11996827 0.017274309 0.045895915 -0.057808 0.025185175 0.031778112 0.03605482 -0.021058 0.045752723 3.375352e-05 -0.01454422 0.0071614506 0.035911836 -0.02474773 0.028817695 0.0057620867 0.0493602 -0.072293684 -0.016132234 -0.007753906 0.03198376 0.048467554 0.020531345 -0.03295088 0.06290227 -0.03278249 -0.034155373 -0.013411467 -0.054942265 0.04109729 -0.013342277 0.03676632 -0.017274959 -0.009145092 0.014034698 -0.019004416 0.024068559 -0.012181838 0.011992812 0.07184954 0.009877583 0.065740205 -0.08359914 0.0048476313 0.009205354 0.027155273 -0.003082146 0.059384488 0.06692782 -0.017271366 0.033896755 -0.010780365 0.006813523 0.050202534 -0.043404613 0.026215408 -0.03184969 -0.01754705 0.06011388 0.032828625 0.09124995 -0.061370585 -0.031335764 0.053226832 0.01804426 -0.016501851 -0.04265755 0.013222546 -0.009640295 0.030811064 0.052467793 -0.008381505 0.0054788454 -0.0190608 -0.0068539046 0.005458368 0.026770566 -0.013601459 -0.04153132 0.014275471 -0.029596834 0.07769574 -0.024179652 -0.030840794 -0.011227056 -0.0009525855 -0.0038025023 -0.009020901 0.021860458 0.018999716 0.06504593 -0.06227036 -0.010714313 0.039504338 -0.02990453 -0.037792217 -0.011604648 0.023166614 -0.0035326844 0.07748468 0.06505456 0.039149273 -0.003879803 -0.014351407 0.02177297 -0.033849224 -0.10527704 0.03391423 -0.059248973 -0.0020827393 0.022174425 -0.007854263 0.0083898865 0.03600065 0.017806236 -0.0002476681 0.015716523 0.014036594 0.016724568 0.025108343 -0.018236687 -0.01290359 -0.024966026 -0.0046255086 0.0071619265 -0.042117678
'' 0.07609749 0.07398007 0.0061576106 0.043314606 -0.023900442 -0.024079185 0.006696201 -0.03390219 0.07668673 -0.00022094675 0.06643064 -7.409262e-05 -0.010161792 -0.055657577 -0.032129116 0.036066275 0.0032978503 0.0019849937 0.022117073 -0.036177304 -0.029474765 0.0089784935 0.014180863 0.014586286 0.017893057 0.02428705 -0.03342079 0.0149528105 0.056685917 -0.014261995 0.006776364 0.057447102 0.036339276 -0.05082888 0.019800777 -0.010873425 -0.006969652 -0.0073861913 0.02422121 0.02268411 0.018186547 0.00026354482 -0.0021093008 -0.039236393 -0.008173131 -0.025741613 -0.035096176 -0.0005352378 -0.016950015 -0.008156278 0.010804789 -0.0028763786 0.0148910135 -0.014320866 -0.011916271 0.03619212 -0.016316526 0.017409047 0.020870898 -0.03293431 -0.0003487046 0.008946919 -0.0074608475 -0.040671915 -0.03172037 -0.044183757 0.01077299 0.021995664 0.008335305 -0.016750993 -0.00037928246 -0.009928342 -0.049905077 -0.041094203 0.0352147 -0.02462393 0.0014985166 0.0032469884 0.008333566 0.049306292 0.051409 0.022112288 -0.012887698 0.031624384 0.006276806 0.0042908834 -0.0015402345 0.015631663 -0.04875026 0.019698335 0.00726204 0.013650438 0.040335327 0.007847822 0.027699316 -0.010137926 -0.0047032223 3.7380173e-06 0.006741381 -0.0109561905 -0.019322608 -0.005513584 -0.0035949908 0.032827128 -0.030337868 -0.011308059 -0.043068655 0.006266683 -0.011038039 -0.004457541 -0.040592127 -0.061606403 0.013787028 -0.043784253 -0.023078136 -0.066215105 -0.07417657 -0.0059870156 -0.013957878 0.05335242 0.005019689 -0.004111488 0.010354907 -0.01655275 0.033853203 -0.027503455 0.0071011637 -0.0034490444 -0.008959159 0.008607197 -0.06277021 -0.02504547 0.020160219 -0.033004995 -0.003957577 -0.014275056 0.034581628 -0.0034892126 0.013047934 0.020313898 -0.028939411 -0.016654056 0.0041848556 -0.000342407 -0.009360643 -0.01631869 0.01477035 0.019967305 0.050347436 0.006225998 0.023469958 0.03789756 0.05397749 0.043406703 -0.028680218 -0.008080394 -0.019882372 -0.034384284 -0.00576823 0.008321395 0.017617948 -0.01653223 -0.011645835 0.006328947 0.009213526 0.043285675 -0.02250313 -0.0133585585 -0.010332979 0.004687251 0.0052380576 -0.05522126 -0.008751137 -0.02727884 -0.0076337126 0.010030056 0.0103888465 -0.006474821 0.024459315 0.011479045 -0.003629876 -0.010239697 -0.0050278525 0.024686212 0.00013086655 0.004604031 0.03971661 -0.012362197 0.036646936 0.028738199 -0.023675894 0.004332971 0.008196125 0.01751375 -0.0058793323 -0.011246484 -0.004950108 -0.019610118 0.0023525534 -0.056821767
from 0.07957176 0.09307357 -0.02929698 -0.016770069 0.02119063 0.029987087 0.049395684 -0.020980924 -0.006578993 -0.029610608 0.013823836 -0.03283255 -0.023979126 -0.038214866 -0.06887383 -0.009660977 0.026549684 -0.0007036984 -0.059366234 -0.013557673 0.00045097835 0.013834697 -0.004910027 -0.021564044 -0.0772862 0.0037148318 0.041951645 -0.020850336 -0.013966225 -0.0027850047 -0.019037014 -0.0049956925 -0.023901615 0.03945378 0.04117172 0.060223978 -0.0090105375 0.035577245 0.043911062 -0.040748175 -0.005471604 -0.03680356 -0.011713816 0.032154366 0.032469735 -0.049578357 -0.005362159 -0.03282949 -0.020439599 0.0021932013 -0.013014436 0.025977418 -0.000994873 -0.0036657644 0.013433005 0.04304901 -0.06454996 -0.040426973 -0.02833317 -0.0105758235 0.019821804 0.028329875 0.024025049 0.012984503 0.010190414 0.019811716 0.0024515742 -0.034753375 0.0093981875 0.015666831 0.0032653748 -0.03421943 0.03384458 0.049056463 0.021354351 0.012002501 -0.10551968 0.0038380884 0.018159375 -0.041107982 -0.021116998 0.021074586 -0.03921583 0.051772524 0.029672747 -0.05373033 0.009315409 0.04300528 0.028865859 -0.051501583 -0.036281515 -0.012986096 -0.00697511 -0.024123147 -0.019557085 -0.017567039 -0.02037822 0.0003886068 -0.016809193 0.0056584137 -0.0035781446 0.01148488 -0.030669453 -0.02404864 0.06154622 -0.03633973 -0.016767696 -0.056477558 0.03498006 -0.024597256 0.016926793 0.045765225 -0.005755892 -0.053609442 0.056250226 0.045433197 0.04518822 0.03741599 -0.033117678 0.03744554 0.0047444557 0.00039028312 0.01580171 -0.0144503955 0.014985597 0.010484628 -0.026880994 0.02869702 0.0005423403 -0.033778246 -0.023020051 0.030845413 -0.017534232 -0.012122598 -0.027271468 -0.015907032 0.029251702 -0.021940907 0.016300954 0.0038705594 0.015872924 -0.03208972 -0.08038699 0.017315228 -0.02248847 -0.032885224 -0.030039964 -0.011551244 -0.025069388 0.05371324 0.032866362 0.004915372 -0.006079986 -0.014044641 -0.05463167 0.0015914544 -0.026840964 -0.026000237 -0.039071556 0.01945484 0.0350455 0.04114914 0.0026406252 -0.0017036608 -0.04225064 -0.04196029 0.028129887 -0.029228704 0.039433546 0.0051342845 -0.032422185 0.0233814 0.023623658 -0.008315 -0.01728649 -0.0018160964 0.02103052 0.032074552 0.01898874 -0.0057642655 0.041623402 0.013922 -0.012861849 -0.008104106 0.036698516 0.010043509 0.034596123 -0.053038243 -0.021366708 0.021337213 0.032350115 0.05005113 0.033181924 -0.036616925 -0.058515 -0.026319144 -0.075644225 0.020462772 -0.010347648 -0.0076420144
are 0.0758291 0.082733735 0.050656926 -0.062992826 0.07964903 -0.011383092 -0.015399508 -0.040948253 -0.019065047 0.09378472 0.020636745 -0.08266806 -0.066938065 0.05379823 0.031121451 -0.015960047 -0.011450875 -0.020670973 0.02381596 0.24316736 -0.028344154 0.042730063 0.00050548126 0.093876235 0.019367956 -0.016056443 -0.030942732 -0.008971464 -0.00012231566 -0.007296143 0.11404359 0.06448689 -0.016565442 -0.03560232 0.07378753 0.049339432 -0.006435523 0.02803296 -0.07951115 0.025749693 -0.028113179 0.027797723 -0.019541819 -0.07597667 -0.034967344 0.0014653777 0.045562994 0.03531584 0.01409675 -0.010456443 -0.03682293 -0.031737372 0.03079371 0.004172946 -0.021626318 0.035496425 0.019268762 -0.031046635 -0.021737589 -0.05779147 0.013708473 -0.045632076 -0.033703998 -0.0066587674 0.058392126 0.027153526 -0.044645645 -0.013004704 0.028818646 -0.0062370445 0.0015884932 0.033331715 -0.009524179 0.07381772 -0.03244669 0.03357806 -0.0044589047 0.019736841 -0.023859682 -0.030985126 -0.017720358 0.013805107 0.056635346 0.009502983 -0.008533115 0.025659684 -0.012050783 0.025334224 0.021219885 -0.045919914 0.033027813 0.021116681 -0.008141156 0.015890893 -0.0055060675 -0.00781531 -0.04425743 -0.007918624 -0.025179978 0.037205014 -8.182691e-05 8.560865e-05 0.03611489 0.019603096 -0.049580246 0.041894738 -0.018949496 0.023403682 -0.020850612 0.023398444 0.007275753 0.043469053 0.02990101 0.025873518 0.0112462165 -0.027424904 0.0045977877 -0.01865131 0.04063899 -0.004620179 -0.030903121 0.020100318 0.026422968 0.011071496 -0.0062775523 0.042359322 0.00039331807 0.029725462 0.024712007 0.0072051543 -0.012141925 -0.005338006 -0.024618221 0.0109950015 0.041312024 0.0010647924 -0.014547461 0.025742656 0.039711688 -0.005107275 -0.015129578 0.0018385819 -0.020049214 -0.044548064 -0.014731303 -0.03269847 -0.008778902 0.0071610934 -0.05422806 0.030140972 -0.014293825 0.10867007 0.0042921966 -0.01624221 0.037357166 -0.0029091667 -0.021405553 0.012306685 0.016321667 -0.04023575 -0.014986302 0.009215731 0.0022348028 0.054580163 -0.024718044 -0.007819896 -0.048835892 0.010508031 0.015716322 -0.01875301 0.026611798 0.04501738 -0.014474449 -0.015042294 -0.009467887 -0.0031386372 0.02844467 -2.8325917e-06 -0.0011900014 0.02416531 0.009095071 0.038893368 -0.0033075667 0.0044534765 0.010605582 0.030381821 -0.027839068 0.07422423 -0.0016757837 0.013895822 -0.005888176 0.0061724987 0.028639853 0.053522673 -0.009192162 -0.030987786 -0.020186778 -0.004127441 0.029728303 -0.0048418734
`` 0.07471248 0.06928485 0.03318625 0.051258992 -0.04015948 -0.020352347 -0.0042998646 -0.041162804 0.093682505 0.031524267 0.071170665 0.0201328 -0.027349379 -0.06347191 -0.021513563 0.028508475 -0.0035631415 0.032592487 0.010938502 -0.028737022 -0.034033254 -0.010063254 0.0066631245 0.009029014 0.030412082 0.028266849 -0.0060555837 0.01648178 0.06839565 -0.03449827 -0.01777596 0.05798597 0.05473903 -0.048845105 0.032385252 -0.02793023 -0.033066507 -0.017293826 0.01848968 0.003997241 0.014238575 -0.021331647 0.028459301 -0.06867398 -0.005383971 -0.01822565 0.001588609 0.02885081 -0.008022568 -0.026841411 0.03667567 0.02644198 -0.019610068 -0.026740223 -0.028912356 0.013150842 -0.011732114 0.035229884 0.017313102 -0.039791614 0.010275375 0.03195967 -0.01106231 -0.069949724 0.0034227946 -0.038943097 0.04113195 0.051871147 0.005493846 -0.03676246 0.04515266 -0.01004542 -0.020051751 -0.020071972 -0.012945018 -0.02702223 0.0103364885 -0.015861701 0.016942013 0.027290247 0.05947371 0.009671806 -0.0034699363 0.029301446 0.029112298 0.04613869 0.036696583 0.021994883 -0.06401844 -0.0054163537 -0.022908028 0.0066524222 0.02820169 0.0225469 0.025658539 0.009350875 -0.014901528 0.023167208 0.005565668 -0.018163534 0.01791325 0.03253322 0.013087768 0.024107177 0.00032035506 -0.005214322 -0.038416788 -0.009985013 4.744259e-05 0.00026827413 -0.100492634 -0.034236923 -0.012779908 -0.05349515 -0.047720585 -0.014653052 -0.07914366 -0.023380931 -0.005666219 0.039089665 0.013588674 -0.025279226 0.00526266 -0.016940862 0.015522979 -0.019911218 0.027381413 -0.040800005 -0.009488263 0.003935533 -0.026966589 -0.020857237 0.05804181 -0.04740579 -0.028587943 0.039284002 0.04603402 0.016387908 0.0154112205 0.027349792 -0.047610596 -0.005855626 0.0022947665 0.013461624 -0.036280133 -0.006364455 0.0059780166 0.016519861 0.09298947 -0.0014039963 0.014681551 0.02553813 0.028672898 0.0050404393 -0.039658558 -0.010004872 -0.023352407 -0.020164488 0.002678362 0.040873285 0.020776615 -0.0056126784 0.0050946334 0.02194525 0.022720253 0.03688878 -0.014971028 -0.05615902 -0.05487323 -0.011800513 0.021014158 -0.029303718 -0.03281418 -0.028706292 -0.01777136 -0.009784213 -0.00011675006 0.04065662 0.042715516 0.015248274 0.014798318 -0.023356976 -0.03091948 0.0049755583 -0.00583367 -0.038608484 0.047896385 0.0026828542 0.023900932 0.008436667 -0.03360416 -0.010696988 -0.012511026 -0.012547859 0.009064722 -0.004190218 0.004324251 -0.0015072833 -0.013185692 -0.06380744
it 0.07498488 0.06503451 0.02646819 0.04067329 0.004781053 0.056150343 -0.105310544 -0.0043808958 0.008457391 -0.04033613 0.022320166 -0.015363207 -0.015314166 0.052346364 0.085016064 0.055879395 0.048953388 0.027254248 0.020877358 -0.033775907 0.04220441 -0.033232655 -0.014040596 0.016668854 0.0042346404 0.0040775924 0.011373285 -0.004653082 0.009637529 -0.0073382314 0.055265684 -0.011945297 -0.021673845 0.01178066 -0.007852157 -0.0021982382 0.06577891 -0.020263247 0.028997578 0.007356774 0.01668468 0.026467806 -0.04310666 0.0050123073 0.033064898 -0.029244922 -0.011695334 -0.0066469884 0.04364432 -0.064414605 -0.0037151836 -0.056870174 -0.038214643 -0.002374997 -0.017825626 -0.0046450966 0.027234314 0.007309261 0.06352695 0.0020257414 -0.012822736 -0.028984275 -0.012098549 -0.039471887 0.002741457 -0.0010798477 5.0136678e-05 0.0022791163 0.00491025 -0.033756368 0.012789792 0.003608208 -0.042769488 0.020031855 -0.011096327 -0.03562907 0.00835345 0.017914155 -0.010449161 0.008532673 0.016405491 0.021186024 -0.0037775254 0.01678485 0.016642075 -0.013054648 0.011383909 -0.00067928166 0.01945202 0.0013455922 0.0051595345 0.008405248 0.029799031 -0.053357124 0.008165365 -0.016989928 -0.04460979 -0.0175102 -0.011505765 0.050843224 -0.049828947 -0.015171137 -0.011087869 -0.02913755 0.002540356 0.00862022 0.04724185 0.06408582 0.001060681 -0.012728807 0.0007863466 0.031761922 -0.03520308 0.047035858 -0.0022366142 0.02738753 -0.024233753 0.04122101 -0.0030557485 -0.037815996 -0.0041812095 -0.023147482 0.020259539 0.032634202 0.008467163 0.0019077193 0.00017133863 0.014128374 -0.023276111 -0.017356718 0.03793217 -0.012674135 0.026959166 0.011574687 0.038971562 -0.0039729634 -0.0034908894 -0.009631707 -0.012980272 -0.019055441 0.0070087384 -0.020231677 -0.04868398 -0.046963118 -0.0063541406 0.014988667 0.016554441 -0.05148427 -0.013109544 -0.059903197 -0.037758958 0.016445423 0.037161224 -0.012658971 0.015373991 -0.012628247 0.01525874 -0.01893998 -0.010025641 -0.025469713 0.027355358 0.017565532 0.023991458 0.01132202 -0.0015613828 -0.019690752 -0.014738623 0.029765733 0.03363932 0.04146903 -0.019279493 0.011279295 0.0069902046 0.023395464 0.014069952 0.013873855 -0.03438781 -0.01935582 -0.043207493 -0.007990313 -0.019607393 -0.009021489 0.01534178 -0.014690559 -0.0056571974 0.03431098 0.012985045 -0.05110511 -0.008878437 0.021942291 0.0054991273 -0.011410872 0.003074299 0.0124915 -0.03969345 -0.03628515 -0.03505942 0.034276348 -0.0051058917 0.030246599
his 0.072649434 0.06706515 -0.001507025 0.08304827 -0.090933636 -0.046680078 -0.07071288 -0.019303037 -0.006611589 -0.021695817 -0.06065917 0.05141927 0.0010860843 -0.0032690612 -0.08844253 -0.063600376 -0.021214878 -0.050010443 0.12895592 -0.04055785 0.024526665 0.02315872 -0.009820012 -0.009651428 -0.07644442 -0.031622652 -0.08074503 -0.09667464 -0.027311603 0.007890912 -0.06587124 -0.014561431 0.0051647783 -0.049572345 -0.002485881 0.031749394 -0.03237187 -0.05665175 -0.02086152 0.050334517 0.1383726 0.02613256 -0.04972915 0.021080056 0.07072718 -0.09270042 0.021349505 0.022513809 -0.006145231 -0.020191442 -0.02382486 0.03352502 0.023724228 0.025008636 0.026752483 0.0058441525 0.029747158 0.054591715 -0.09657756 -0.01701483 -0.042690124 0.043022536 0.0299066 0.020364128 0.0048626456 -0.021402774 -0.019714324 -0.06333811 -0.04379758 -0.016498614 0.027653523 0.015403614 0.025469765 -0.023290291 -0.0034018802 0.0037550435 0.025609987 0.039750203 0.009841306 -0.071121246 -0.01271887 0.011259961 -0.009112066 -0.0068088556 -0.06290189 0.056850795 0.006831016 0.007806865 0.02588091 -0.007385428 -0.026597364 0.0005163388 -0.069023244 0.017091835 -0.05650767 -0.0015064867 -0.0024455641 0.0051542684 -0.014401877 -0.03235415 0.01704411 0.045032386 0.015088553 -0.016738625 -0.0015011758 -0.00019911306 -0.010504898 -0.019655077 0.048711553 -0.024199516 0.004353906 -0.023289068 0.00720724 -0.020424847 -0.01251674 -0.0044938726 -0.012344905 0.021470174 0.0057470095 0.016138421 -0.028198827 0.030625638 0.030913034 0.0103697395 0.011857129 -0.034329217 -0.003964338 0.009407721 -0.006136165 0.00038870244 0.00043763145 -0.06644069 0.0033425905 0.014737351 0.008089249 -0.007115882 0.007813095 -0.013981051 0.05421935 -0.025354434 -0.009745897 0.0007156547 -0.03044394 0.020106707 -0.05106037 0.010985353 -0.03412687 -0.021290574 0.023723267 0.00010565912 0.027956588 0.044468198 0.020031096 -0.007375309 0.035617955 0.0073381346 -0.028717306 0.0415929 -0.03974412 0.028885348 -0.049543016 -0.010622686 0.012336245 0.009758405 -0.023323933 0.014344435 0.014495315 0.0011312765 -0.010897315 -0.001027734 -0.05457292 -0.008773248 0.00939036 0.04304512 0.0034842538 0.037951455 0.029179089 -0.021669125 0.02485046 -0.021985162 0.027371759 -0.019947322 -0.0095787635 -0.004442844 0.005724982 -0.037944447 -0.011424937 -0.0048212237 -0.025994115 -0.04179621 0.05578204 0.008301197 -0.00409388 -0.009947673 -0.005226451 0.0021479707 0.01663613 -0.028290939 0.004225031 0.037042458
at 0.07310935 0.074475504 -0.048497424 0.018364508 0.04766456 0.012134447 0.011825958 -0.019842027 0.047641933 0.0042196424 -0.054492325 0.026931873 -0.024356648 0.027921135 -0.007195291 -0.0121106785 -0.011417487 -0.017983418 -0.07203548 -0.0072661424 0.01613267 0.06630565 -0.029640539 -0.059687316 0.017781796 -0.08119435 0.046085726 0.038984664 0.020574078 0.065320894 -0.028268034 0.022675784 -0.050016113 0.018703626 -0.049941555 0.040638197 0.003503995 0.0066390107 -0.021790564 0.043532245 -0.028263718 -0.037301227 0.03984285 0.07738627 0.06167916 0.0117516415 0.010352104 -0.00049114815 -0.027154515 0.034240045 0.0077709593 0.0066702077 0.003170979 -0.050736886 0.0031471744 -0.0007993178 -0.0172282 -0.018101353 -0.029874831 0.0072180605 -0.0032963199 -0.015584927 -0.039704807 -0.0040591187 -0.06941187 0.012526626 -0.055662263 0.023769574 0.020158822 -0.066663556 0.05179584 -0.028794784 -0.018894894 0.013803253 0.055192776 -0.0011153419 0.08950146 -0.014907154 0.012594295 0.0020840806 -0.025529422 -0.043817393 0.019554242 -0.019751348 0.022163462 0.05046505 -0.0044978354 -0.034151096 0.03009202 -0.0033688156 0.11697601 0.02670659 -0.0054473444 -0.052405354 0.042795002 0.06747756 0.055724904 0.0039808564 0.015774418 -0.009943853 0.0057745543 -0.025609381 0.027138319 -0.0035019605 0.004589119 0.027072135 0.031319104 0.054136727 -0.009965577 0.01221637 0.04447278 0.0036063348 -0.011744431 0.03727451 -0.011369767 -0.010207367 0.044976853 0.06860861 0.012421571 0.014358716 0.037256457 0.030567672 -0.0029010768 -0.056540184 -0.046368744 0.024886876 -0.05569388 -0.0013736757 -0.014250928 -0.005014912 -0.022051271 0.0154992165 0.048882548 -0.047253262 0.03519548 -0.043061487 0.087833196 -0.004260978 0.004991529 -0.0407728 0.048755698 -0.07292475 -0.08606897 -0.025552385 0.0013945453 -0.027651703 0.04231444 0.015039031 -0.012356932 -0.015582748 -0.0068942006 0.011660675 0.010787275 -0.059116907 0.019781055 0.0074193696 0.027325615 -0.0075701396 -0.070134066 -0.052818626 -0.014084996 -0.0124736335 -0.0021999297 -0.026591456 0.018987464 0.06722076 -0.058747098 -0.097542495 -0.04793551 -0.0016672966 -0.025640067 0.0460969 -0.004454382 0.018130241 0.019683307 -0.0026659428 0.024486914 -0.029076196 0.043068565 0.002595504 0.021917144 0.02869505 0.012371125 -0.009932576 0.00091972924 -0.047315177 -0.018420255 -0.019576551 -0.0044134334 0.0016228779 -0.010067432 0.032464154 -0.022345899 0.0044133198 -0.0484456 0.035905823 0.012130903 0.01962838 -0.022308461 0.040790014
which 0.072967745 0.072630905 0.015780143 -7.488493e-05 0.0044034007 0.01672396 -0.04565691 0.011382077 0.013851985 0.0019640997 -0.022062546 -0.05301954 0.048303016 -0.0003725453 0.02682882 0.015574869 0.030832412 0.014928319 -0.017495943 -0.09037966 0.03127294 -0.036901664 0.048822608 -0.04198488 -0.01124296 0.008075933 -0.025927706 0.051153254 0.0057086498 0.0071671037 -0.025023224 -0.00014103837 -0.03389479 0.029812364 -0.031102788 -0.04513095 -0.04021898 -0.008280265 -0.029288046 -0.045317788 -0.012439903 0.0036373348 -0.040235776 -0.008185071 -0.117531665 0.1286781 0.004021784 0.010706918 0.015509017 -0.019276932 -0.049216267 -0.020884268 -0.014135945 -0.025577277 0.03891195 -0.026604356 0.0009131189 0.028093332 0.014110143 0.011398871 0.01592071 0.016611 -0.01437144 -0.021467173 0.04631076 -0.007298435 -0.045730956 -0.029064108 0.011132502 -0.033691175 0.049482938 -0.029508686 -0.030713864 0.022001337 -0.047821708 0.016212607 0.029284045 -0.019011581 0.01613567 -0.027229121 -0.048028193 0.013732657 -0.007487497 0.01874382 -0.030136911 -0.05885525 -0.03204937 -0.0033166758 -0.03030282 0.005110614 0.0012851566 0.049058005 -0.043292273 -0.033063658 -0.0005593996 -0.000931297 0.013336212 -0.015251847 0.043364007 0.034260534 -0.029184828 -0.00084498664 0.013835976 -0.017376758 0.0030421796 0.009685351 0.036397982 0.011950187 -0.008190595 -0.030167742 -0.04054649 -0.010604219 0.021161288 0.002153244 -0.03974371 0.0028727136 -0.011745849 0.0051764133 -0.0009356098 -0.058516514 -0.032383025 -0.026590345 -0.020869078 0.038400725 0.007921318 -0.016145088 -0.008162354 0.0005419265 -0.031603202 -0.0112447115 0.017242149 0.008234735 -0.026792036 0.008320006 0.0034714928 -0.042581934 -0.0038919535 0.008216223 -0.010392714 0.012692867 0.015462807 0.058008004 -0.0008034486 -0.030481396 -0.019810278 0.033407167 -0.05679404 -0.012933905 -0.020963674 -0.006802533 -0.025814533 -0.00082014187 0.020438185 0.015324457 -0.024706315 0.012359961 0.009423964 0.03230369 -0.004955332 -0.014561316 0.059762347 0.055275414 -0.01330771 0.06159612 0.015973674 -0.011674934 -0.00586136 -0.004302097 -0.03426963 0.03446126 -0.0017710316 0.011306033 -0.037240293 0.024505988 0.008990774 -0.024896448 -0.03369657 -0.001706297 0.0012873898 -0.022198005 -0.051724236 -0.009292793 0.02211444 0.030964244 -0.02733049 0.007918895 0.025644148 0.0056762644 0.03444014 -0.00831508 0.05487813 -0.0057671615 -0.028135007 -0.015627677 0.023522822 0.0071851653 0.021838428 -0.0034231984 -0.025497502 0.0030711342
an 0.07095061 0.067430936 0.0027341242 0.011108043 -0.007864712 -0.0021493828 -0.053812843 0.044932917 0.038196716 -0.041373488 0.0010555021 0.016388416 0.05080865 0.01073781 0.020028587 -0.017707411 -0.04487599 0.067633 0.081509106 -0.08319221 0.044058003 0.018259486 0.06705591 -0.016620984 0.0116812615 -0.027213102 0.06077697 0.04145237 -0.009620639 0.02998738 0.016582657 -0.0364109 0.03930424 0.027922008 -0.009597619 -0.038445745 0.027298877 0.04541475 0.00013746704 -0.07724989 0.006710624 -0.041719496 0.041277736 0.02295801 0.021526426 0.11922354 0.015856178 -0.014036035 0.07210758 0.008576457 0.011556187 0.053242296 -0.054714244 -0.024191502 -0.046826135 -0.01640364 -0.00082694076 0.07665079 0.030198175 0.0013846795 -0.014311041 -0.01607656 -0.01960419 0.102410644 0.0467687 0.09715599 0.025797164 0.017198022 -0.038182925 0.032443166 -0.0028625915 0.026469983 -0.029988354 0.002458598 0.06243632 -0.013770107 0.03671326 -0.023842925 -0.07266486 0.03152983 -0.018223379 0.07532526 0.0022436269 -0.05049496 0.0032840082 -0.05294335 -0.0240187 0.01372325 0.114090085 -0.034630682 0.023751922 -0.036877736 0.026110632 -0.08907092 -0.11162884 0.030955734 -0.04494581 -0.016691519 0.0357206 0.008854498 0.046250146 0.02080876 -0.03270264 0.0537394 0.016734192 -0.061823122 0.009066013 -0.0054731574 0.007806596 -0.052794695 0.07952431 0.04627776 -0.08691719 0.0693281 -0.0012443129 0.04789657 0.05360023 -0.064315766 -0.031191953 0.058913678 -0.013264971 0.010024567 -0.009636151 0.013100421 0.03004267 0.08553709 -0.0023807848 -0.02231865 -0.056645103 0.10531286 0.010817516 -0.062396802 -0.04537484 -0.019332068 -0.005829391 0.050605092 0.06761515 -0.03231483 0.07003283 0.03732222 -0.068211794 0.021228572 0.062547386 -0.031849403 -0.044853885 0.0054674456 0.0774977 0.029098734 -0.037276544 -0.09300296 0.05079181 -0.09549341 -0.024949444 -0.017063184 0.00167859 0.020813745 -0.035612997 0.031743232 -0.031198846 0.048191898 -0.009065274 -0.021278614 -0.041201383 -0.058057427 0.0059161936 -0.09753632 -0.027694162 -0.02148588 0.116021045 -0.012490291 -0.039423395 0.07047537 -0.038771402 -0.014635834 -0.031699784 0.021918178 -0.0063018263 -0.015749356 -0.021922473 -0.02488984 -0.04133971 0.018985394 -0.0026126676 -0.011026067 -0.011439214 0.044858698 0.033818144 -0.0048745126 0.024328314 0.005393152 -0.0028240567 -0.051017012 0.10229383 0.027000645 0.009836513 0.04262403 -0.03725551 -0.015048868 -0.033949796 0.011594366
or 0.071704656 0.07150592 0.035039138 -0.0037817091 0.04671735 0.00318669 0.030506657 0.01606869 0.025938595 0.033360973 0.027566649 -0.005820625 -0.007602587 -0.06390585 -0.05348975 -0.03204575 0.003609784 -0.020507261 -0.002101661 -0.006699398 0.024447901 0.030152515 -0.0023818219 0.029041095 0.02716925 -0.029664114 0.009422429 0.0041275234 -0.024907662 -0.02791888 0.0074808286 0.012787238 0.02994421 -0.029878024 0.03951281 0.008300654 -0.023090132 0.04394077 0.043991897 -0.06471994 0.00035410826 -0.033846393 0.038276847 0.010807676 -0.05571572 -0.026929198 -0.09541024 -0.025244512 0.01566878 0.03857473 0.004178994 0.021806018 -0.005510252 0.0668866 -0.03186979 -0.03965851 -0.0386186 0.019520937 0.016968431 -0.047958273 0.050245363 0.047330122 -0.008019963 0.0089916615 -0.010502919 -0.02736147 0.024516251 -0.05464749 -0.0021679148 0.008000254 -0.008318771 -0.010094542 0.0069491295 0.06818061 -0.01529454 0.005681777 0.061369848 0.00046899245 -0.025970457 0.0013387736 -0.0039411774 -0.026169071 -0.002641178 -0.044069637 0.0123167485 0.0071863444 0.055289794 -0.016490316 -0.027228827 -0.061462406 -0.010709002 0.002714595 -0.022961384 0.055129956 -0.016369494 0.0068590087 0.02524563 0.0011337433 -0.027057229 -0.021619655 0.031245314 0.0396747 -0.0005642646 -0.01306474 -0.0044293627 -0.01243522 0.018327275 0.018137833 -0.005322108 0.018489942 -0.008503989 -0.0022799969 0.03736909 -0.011661473 -0.014020621 -0.038093384 0.039558984 0.030063381 -0.020444198 -0.034223 -0.0033426892 -0.016511932 -0.03194842 0.015897432 0.009332471 0.021883145 0.040927615 -0.033132568 -0.0014166113 0.044738103 0.005099266 0.011370179 0.055154253 0.019258605 0.008686892 0.027164932 0.054973755 0.019632475 -0.0034627034 0.0137633635 0.022720559 0.0101173 -0.020935787 -0.034468617 0.04080174 0.008270757 -0.033348966 0.05670068 0.00878462 -0.04548536 0.020035531 -0.010892598 -0.023401882 -0.00857946 -0.04180071 -5.5141663e-05 -0.009154622 0.032554153 0.022262018 -0.048828706 -0.0060011744 -0.024836924 0.007401564 0.06046401 -0.0071624294 0.04693986 0.026356462 -0.003905716 -0.008797138 -0.014051988 0.0059508504 0.029656129 0.011846674 0.003243004 -0.032581832 -0.0094367955 0.018427817 -0.034959614 -0.048896704 -0.07194125 0.021822216 -0.01847868 -0.04943745 0.0015670763 0.022732705 0.0012801634 0.00036178253 -0.05913338 -0.031932563 -0.01764452 0.0050359154 -0.025282728 -0.009084753 0.06748056 -0.07403526 0.03079755 -0.034797218 -0.0047400603 -0.0017941128 0.046532456
be 0.067932345 0.056632508 0.07398181 0.04713541 0.02403917 0.052101277 -0.09754622 0.020875167 -0.004221117 0.018883076 0.002436288 -0.05105572 -0.036528654 0.04441906 0.070647866 -0.00976891 0.0070330976 0.04139244 -0.016628774 0.100860134 0.03498019 0.004788501 0.05172527 -0.034371376 -0.015464442 -0.025669914 -0.113373995 0.023498118 -0.02153673 0.013867688 0.10804268 0.015399429 0.013241839 0.014367492 0.058116943 0.06331051 -0.035074383 0.0342661 -0.035154693 0.014644477 -0.018870967 0.027484134 -0.018297493 0.021248834 -0.0060055577 -0.0009012028 0.05713655 0.03147194 -0.023528455 0.0063655265 -0.018559374 0.008523055 -0.049724955 0.041512035 0.050638296 -0.020492854 0.005142861 0.007272474 0.053131796 -0.0017375642 0.03538921 0.079931796 -0.033856697 0.005741891 0.024772137 0.031363584 -0.031329457 0.022492746 0.05707236 0.028410057 -0.00019177038 0.009203896 -0.028148074 -0.034220837 0.01956076 0.018518114 0.023472574 0.02175767 0.010779777 -0.014310389 0.04517655 0.050115306 0.07258427 0.018184375 0.0020788524 -0.0027749143 -0.014282648 0.01109046 0.005344572 0.00475109 0.048360925 -0.011248141 -0.04225916 0.04552693 0.01219746 0.026400635 0.03522042 -0.038478866 -0.026915193 0.024721103 -0.029389234 0.0774643 0.051581845 0.008877514 -0.011416765 -0.05935014 0.009505589 -0.0030204067 -0.080754295 0.0008202539 -0.0018887782 -0.004568526 0.035909828 -0.010152119 0.042337816 -0.02401113 0.032924738 0.025008358 0.022543617 -0.02419959 -0.0040822136 -0.001814266 -0.025440942 0.042447004 0.016931584 0.0002648246 -0.010811845 -0.023545252 -0.0017564002 0.028297331 -0.023363799 -0.084820606 0.02163956 -0.0179517 -0.06336455 0.016265843 0.00040350517 -0.018215746 -0.055155523 0.027873037 -0.042504307 -0.04801196 0.01698767 -0.015515189 -0.013244345 0.025467142 0.041472908 0.0041332613 -0.059256278 -0.025240792 -0.009467748 -0.03885262 -0.008839089 -0.007609822 0.050685335 -0.025888426 -0.027421407 -0.003606391 -0.0029294833 0.013059407 -0.013338728 0.0025234201 -0.0175669 -0.015641322 0.018089762 0.0468096 -0.022296773 0.02309605 -0.031935956 -0.032560922 -0.007641052 -0.059930105 0.014033477 0.003685827 0.06425691 0.04884632 -0.028521055 -0.0035730873 0.014981119 -0.03262848 0.009611625 0.008912659 -0.03090823 0.0011179099 0.012875954 -0.06439693 0.037945326 -0.06907042 -0.0014874144 0.009159963 0.0025224457 -0.011568545 0.012525669 -0.0006229978 0.058207497 -0.010494718 0.016992344 -0.063660964 -0.0036954363 0.01808473
he 0.06759467 0.052245673 -0.0043216166 0.12024926 -0.06683224 0.010089459 -0.11249078 -0.027843157 -0.020516673 -0.0011824323 -0.006836935 -0.017923485 0.0024557433 0.08885135 0.021005506 0.024949612 -0.013860485 -0.013861962 -0.007928999 -0.009899978 0.036829967 -0.015675409 0.023734972 -0.010792907 -0.017210111 -0.057133008 -0.034720194 -0.0011397211 -0.0077499216 0.0036222208 0.10020972 -0.0028834709 -0.049969148 -0.032520007 -0.046803713 -0.0058552925 0.04776766 -0.05519298 0.06399185 4.328202e-05 0.12731755 0.0064717224 -0.008959249 -0.007986993 0.06353158 -0.115181364 0.00016023198 -0.06151359 0.010449166 -0.000157976 0.028955301 -0.013082861 -0.040822327 -0.05195646 -0.010632329 -0.040671796 0.03167171 0.03398875 -0.014289538 0.00897195 0.007624645 -0.02907158 -0.0150219 -0.054539215 -0.04621926 -0.039688498 -0.06682406 0.03505077 -0.04025045 -0.028463412 -0.0035564988 -0.021838063 -0.018540287 -0.058423895 0.0054527004 0.03415659 0.04275706 -0.02508239 -0.04689482 -0.06781559 0.0007390136 0.030195907 -0.041176245 0.040591598 -0.0064174766 0.0092350785 0.011090944 0.03375756 0.021393318 -0.0051702387 0.016553434 -0.05413686 0.072014995 0.006173944 -0.002957948 -0.04202845 0.009464874 0.004087244 -0.018480025 0.023598194 0.003052083 0.0024052695 -0.024904625 -0.005765967 0.012077445 -0.039598342 -0.025429256 0.03949266 -0.013320303 -0.02768569 -0.0092196185 -0.015631286 0.009597601 0.026652329 0.0086675305 -0.002299269 0.053686414 -0.032004695 -0.024653224 0.01892032 -0.038047515 0.021318262 0.009476103 0.010749367 0.014395683 -0.02962877 0.014548537 0.024714997 0.0047027706 -0.062214263 -0.01277155 -0.008295624 0.03543447 0.018251112 0.03391062 0.01338063 0.0077719158 -0.04643116 0.012988932 -0.03523063 0.018139899 0.008988965 -0.033480313 0.03230443 -0.039473094 0.024715997 -0.009631713 0.020170191 0.046657015 -0.051279344 0.02404684 0.013458105 -0.01514184 -0.031892564 -0.002647812 0.05008848 0.013661891 -0.01227691 -0.0011804417 -0.006382784 0.0030344662 0.039042775 -0.0008434392 0.05425989 -0.038267195 0.01980406 -0.0025174767 0.033299763 0.056212574 0.0005622116 -0.0023025395 -0.004592457 0.015221225 0.009709037 0.024240443 0.0024516599 -0.0015401245 0.007954133 0.005867542 -0.041796073 -0.0056501296 -0.00090045313 0.0068793767 -0.03774009 -0.011253647 0.006425665 -0.026228832 0.014603759 -0.05597229 -0.00087355566 0.024130713 0.031308606 -0.035403296 -6.575129e-06 0.009494622 -0.012216573 0.008498415 -0.01066974 0.016759578 -0.02091176
were 0.07044544 0.0718596 -0.00025730705 0.0026716448 0.0023443531 0.014183426 -0.033117086 -0.049728222 -0.10497981 0.050605666 -0.016368447 -0.08997931 -0.04382377 0.056049645 -0.013514753 -0.027747856 -0.01734905 0.054551564 0.0065832553 0.23256993 0.008779113 0.017044798 0.030146077 0.07759736 -0.0092779985 0.009041144 -0.021987831 -0.008401044 0.030001733 0.016272446 0.09255416 0.061607633 -0.055605926 -0.0020067818 0.017273607 0.05333644 0.005318338 0.0013840552 -0.0931826 0.039078537 0.008307117 0.023814593 -0.009355507 -0.059369903 0.011464165 0.023067936 -0.06349919 0.11085145 0.03251649 -0.021516774 -0.013628687 0.0013272653 0.03508409 -0.040225264 -0.02533631 -0.014160682 -0.011955479 -0.05507734 -0.0016451867 -0.04794907 -0.024263926 -0.004633899 -0.019584535 0.007812337 0.09572887 0.02509454 -0.036141295 0.0056456723 -0.0053102076 0.022309631 0.02286495 0.025714617 0.031546146 -0.0060600666 -0.005024301 0.007567366 0.041920017 0.01985937 -0.05362858 0.025255384 -0.055862084 0.054617476 0.041129872 -0.01154212 0.0035956823 0.006952309 0.0055428417 0.019316174 0.048755225 0.001886699 0.032247003 0.033167757 -0.011971006 0.0464298 0.0038797865 0.010283359 -0.044853494 -0.028903594 -0.08191226 0.052242007 -0.029492112 -0.01839478 -0.0123750875 0.008090725 -0.010586799 0.04915125 -0.029328387 -0.04211305 0.026460223 0.0072681895 0.0047474303 -0.0029303036 0.016847739 -0.044370364 -0.04137471 -0.038984697 -0.008606849 0.023971526 0.003352808 -0.026066935 0.008241235 -0.008320802 0.0028941138 0.014000364 0.017699245 -0.0049622334 -0.060482476 -0.007575016 0.05725763 -0.0077817966 0.019385 0.0030709996 -0.029087096 0.013859796 0.051597137 0.030041173 -0.0007918932 -0.019032381 0.082891785 0.034868937 0.027786443 -0.03332009 -0.084960386 -0.025150225 0.012887031 -0.01679775 0.018122159 -0.013084849 -0.0029605427 0.04841896 0.0036574714 0.033995442 0.0025827812 -0.012953146 -0.014339655 0.01888159 0.0051149633 -0.006693039 -0.01694118 0.00040014824 0.015892662 0.012437642 -0.027091822 0.012498673 0.0017310175 0.0198567 -0.0113908 0.0037915274 0.02397398 -0.014466248 0.012647936 0.025311453 0.026457738 -0.009672387 0.010550578 0.0048605218 0.019548789 0.048057035 0.028271478 0.0009238638 -0.029958384 -0.025166797 0.03662145 -0.025331719 0.023281138 0.04146667 0.00056773226 0.0764515 0.014930328 0.014670668 0.04899978 0.013304118 0.034867313 0.009600032 -0.013247361 -0.030053342 -0.013839196 -0.053354513 -0.0068792324 0.00085914746
this 0.070950404 0.06587478 0.042509887 0.021817898 -0.005657379 0.004867952 -0.04004909 0.03266467 0.027974235 -0.10109614 -0.0008072041 0.007051928 0.044971123 -0.019159412 0.057027105 -0.0219653 -0.0069766836 0.005690875 0.100806616 -0.084897295 0.02514157 -0.025972554 0.016205736 -0.047842648 0.01558597 -0.005335737 -0.024434403 0.009438675 -0.013008954 0.038047582 0.048181083 -0.045097012 0.01996548 -0.009528516 -0.027568217 -0.09723445 0.032736816 -0.051117726 -0.058409438 0.024675647 0.034074783 0.018561399 -0.035809793 0.019250454 -0.03174958 0.039475065 -0.0032983972 -0.032404706 -0.0095766885 -0.013189748 -0.0047054035 -0.05122672 -0.02604804 -0.04830991 0.03117607 0.0801428 -0.026711117 0.009284541 0.07189416 -0.0069395383 0.01730126 -0.021312868 -0.029377162 0.02222591 -0.0056413948 -0.010698928 -0.043725416 -0.020656053 -0.023943199 -0.022831587 -0.02038391 -0.013885356 -0.045027096 0.05557111 0.013062257 0.0049801744 0.0071614115 0.06288664 0.053325076 0.010160235 -0.00985732 0.022461819 -0.018666103 -0.026948733 -0.0012329563 -0.008374093 0.0012062406 -0.005573023 -0.0044047004 -0.0016109922 -0.016069356 -0.0713627 -0.020636236 0.016700044 0.016458655 -0.021216193 0.00078281836 0.020791104 0.03485331 0.05049969 0.05023263 0.034360565 0.009756932 0.022439081 0.005707064 0.024422104 -0.012176698 -0.02419316 0.034979712 -0.026258107 -0.018765556 -0.025308128 0.027943116 0.0052155224 0.025429498 0.0058956095 -0.020348053 0.032246754 0.021185834 0.018616194 0.0036239647 -0.0029334025 -0.015274577 -0.014490458 0.017413244 -0.047980845 -0.037920203 -0.03467184 -0.020461677 -0.02678678 0.0099621825 -0.004107123 -0.031277847 -0.0074848756 -0.024258869 -0.024246035 -0.007269461 0.00018876414 -0.0445988 0.03505454 -0.0048683565 0.011312454 -0.05266341 -0.033164416 0.018256066 0.04376206 -0.04715105 -0.047361434 -0.062447317 0.01769116 0.009174493 -0.0072967713 0.0060740924 0.02804773 0.0005010465 0.00981793 -0.006969714 -0.010719585 -0.054095417 0.036801986 0.00904939 0.0289563 -0.064264335 -0.0050202324 0.06504658 -0.006854913 -0.02341475 0.020792304 -0.008427709 0.0002562306 0.021343872 0.0524996 -0.02255678 0.02566935 0.014096671 -0.027371421 -0.017723449 -0.041894082 -0.0771477 -0.0018400053 -0.021201123 -0.046317514 0.037394166 0.0304075 -0.029492587 0.04660863 0.0459192 -0.034241676 -0.016809674 -0.006647903 -0.01681536 0.029783268 -0.009108962 0.033814583 -0.03546603 -0.0051666526 0.04569602 0.013026682 -0.06655859 -0.0043165362
has 0.06736953 0.07151795 -0.00064807455 -0.030684961 0.0002678766 -0.016060442 0.016327534 0.023235286 0.018469347 -0.006871813 -0.0065734927 0.058887064 -0.029181002 0.094319314 0.10208711 -0.02583718 -0.13112314 0.038226277 -0.006582364 0.14995652 0.024455491 -0.048178785 0.06759471 -0.029289883 -0.058378026 -0.06148168 -0.03627706 0.012349905 0.08307917 -0.026087975 0.05326984 0.03499186 -0.060533334 0.00084800285 0.0182819 -0.04149377 0.023060745 -0.026183644 0.10189821 -0.008059126 0.09162999 -9.7804565e-05 -0.020882355 -0.00077483355 -0.07102383 0.03659987 0.031653337 -0.107353486 -0.0016627294 0.02604348 0.008008389 0.03908836 0.04168786 0.039825626 -0.064147115 0.018942023 -0.02784144 0.029851854 0.024567397 0.051488753 -0.0945606 -0.04509895 -0.0017884885 0.044244695 -0.09271174 -0.040199317 0.030794626 -0.016625034 -0.012121962 -0.022680547 -0.044714358 0.008174724 0.011722464 -0.005012384 -0.044317275 -0.03189129 -0.09682934 -0.008662463 0.00013572072 0.00044743688 0.06385954 -0.027383333 0.004047823 0.0013330732 0.024320235 -0.001894321 -0.042428806 -0.008824098 -0.0031113 0.07677137 -0.04792443 0.027566075 -0.014272962 -0.052207734 -0.020251056 -0.00096582435 0.039265107 0.02041569 0.08907576 -0.04867035 0.013968887 -0.022939997 -0.00916753 -0.019808332 0.0029900377 0.081573814 0.073066495 -0.029961826 -0.01060719 -0.0025484916 -0.05666051 0.011783255 -0.07298974 0.046107028 -0.028715951 0.010348075 -0.0016578067 0.056517586 -0.023565438 0.042917203 -0.009209443 0.017850496 -0.015996845 -0.039075818 -0.019812118 -0.02078764 -0.016938604 -0.008249997 -0.0019451262 -0.044214085 -0.016806478 0.075895205 0.046746165 -0.020847654 -0.018581072 -0.034950525 -0.042145662 0.046934545 -0.078767516 -0.032327868 -0.022402722 0.07046016 0.07199373 -0.009534055 -0.023177546 -0.005218428 -0.025149593 0.02332929 0.039104212 -0.025682276 -0.0173428 0.020980338 -0.03155645 0.011448633 -0.006083712 -0.004548539 0.073540464 -0.030761693 0.043330505 -0.00809257 -0.003567442 -0.037185013 -0.0064276187 -0.04297413 0.018569853 -0.021834932 -0.0016737992 -0.025084443 -0.018205166 -0.0067923255 -0.0025223827 -0.007824228 -0.060816973 -0.04096005 -0.04833942 -0.07046407 -0.021296844 0.01632189 -0.045905203 -0.003086188 0.005887505 0.0027930317 0.014091432 0.001878836 0.013749979 -0.022466645 0.015679661 -0.057974257 0.042237304 -0.012164567 -0.04326145 0.004984108 -0.0109536685 -0.041670583 -0.005899438 0.061468083 -0.032962 -0.0074478462 0.060250923 -0.044010237
have 0.067265645 0.062323023 0.06835841 0.009881905 0.024450056 0.018148826 -0.047010347 -0.007944142 -0.069158 0.041960135 -0.0017655061 -0.016996289 -0.020286804 0.096320815 0.04468367 0.024892574 0.01776747 0.009744488 -0.094167404 0.10754054 -0.03087765 -0.035965066 0.03332955 -0.016458724 -0.03602442 -0.040714093 -0.1235793 0.023841256 0.08131925 0.017382503 0.09438596 0.031234058 -0.090546034 0.053338405 0.006266289 -0.041806377 -0.016691484 -0.039147176 0.04163283 0.013004855 0.05228357 -0.030155292 0.005054836 0.03711587 -0.068202 0.030053562 0.032087684 0.006002659 0.057866864 0.04319186 -0.01384276 0.021152107 0.020589165 0.065869495 -0.029300526 -0.06200509 -0.010553275 0.015886085 0.053476546 0.019151708 -0.06657729 0.017196076 0.040109072 -0.014327396 -0.017099185 -0.060261585 0.014090628 -0.004926452 0.010157224 0.015005942 -0.019513384 -0.04370045 0.03753366 0.012149928 0.011251286 -0.016796203 -0.083794236 -0.012258397 -0.037426777 0.02651776 0.00062161294 -0.023757562 -0.0054595564 0.0032099257 -0.006496399 0.013650853 -0.036231827 -0.011135706 -0.013204804 0.024696857 -0.016962923 0.017670078 -0.054503176 0.029785354 -0.013784674 0.056348495 -0.0109333815 -0.0126221 0.070913054 -0.004042696 0.006159751 0.0002489711 0.01888568 0.014330108 -0.057677347 0.052916035 0.070403315 -0.005531497 0.0030949407 -0.0065351604 -0.045848645 0.0045945635 -0.06501823 0.011768462 -0.0072711413 0.031766154 -0.056196626 0.065392084 0.007485933 0.08294922 -0.0032549452 -0.004761471 -0.049623024 0.028992936 0.019070486 -0.018033776 -0.053322475 0.006131455 -0.012450391 0.040314037 0.029934017 0.008803615 -3.3891607e-05 0.01179723 -7.202843e-05 0.012423808 0.007891271 0.051182892 -0.037583083 0.01649048 -0.039026257 -0.018638084 0.017205315 -0.026212214 0.008813389 -0.010391839 -0.010151218 0.040700812 0.010686156 -0.011163807 0.002317351 -0.0054677716 0.01712646 -0.0150858015 -0.020535318 -0.017152576 0.009677539 -0.00597665 -0.006607732 -0.0021546066 -0.028915076 0.0011440191 0.031685416 -0.020512886 0.04680839 -0.014920893 -0.029757444 0.0063779424 0.021591334 -0.009543443 -0.025144352 -0.05374201 -0.032665744 -0.027619265 -0.045135558 0.007914804 0.0053644124 0.00067194965 -0.017198201 -0.026325423 0.016631039 -0.035740733 0.02301935 0.013960115 0.00021918534 0.015595547 -0.031211106 -0.012367341 0.021170383 -0.036550894 -0.030769037 0.011904561 0.017439999 -0.006721586 -0.017726537 -0.007532212 -0.016364409 -0.031713713 0.025296366 -0.012483783
not 0.06431721 0.043638654 0.08930187 0.050394006 -0.007381978 0.048491456 -0.03706797 0.03894373 -0.0119973095 0.02242519 0.031290382 -0.016504757 0.03552571 0.018879954 0.0708419 0.045256436 0.012066114 0.0075708516 0.006320967 -0.020905165 -0.006396655 0.026742406 -0.049978103 0.009351038 0.014551368 -0.009721352 0.028892446 -0.01133119 -0.005602985 0.00058591174 -0.03634045 -0.001341658 0.06677757 0.015258745 0.014255809 -0.021964999 0.021424768 0.03701049 -0.06842268 -0.015385551 -0.037934236 -0.015848115 -0.07733413 0.044258803 0.0743649 0.013494431 0.023503793 0.028172998 0.06144121 0.025898635 -0.0134799145 -0.016157228 -0.015182429 0.07913815 0.027928757 -0.007881556 -0.0013777041 -0.015408518 -0.029845197 -0.019446563 0.004110244 0.031462748 0.023464603 -0.026877822 0.021538999 0.020933732 -0.03507885 -0.052784763 -0.02072853 0.0533992 -0.0753871 -0.006082644 0.09709719 0.008844251 0.0449857 -0.019728571 -0.08148148 0.07057428 0.13971612 0.051295552 -0.016283393 0.0062285177 -0.06765126 0.016606158 -0.029215092 -0.068780564 0.046824902 -0.08733157 -0.049150128 -0.02763164 -0.028002936 -0.00076215336 -0.0450603 -0.016391885 -0.011839713 0.03150002 -0.019894676 -0.03130754 0.007917353 0.009736503 0.011420591 0.049981277 0.047957458 0.06754624 0.057406694 -0.0801655 0.06982742 0.037451956 -0.060936917 -0.04431265 -0.0504741 -0.07252431 0.035124402 -0.104507565 -0.042062167 -0.025785353 -0.006493811 0.011772893 0.00075364567 0.0044891145 0.07554656 -0.050805688 -0.0006999543 -0.062329005 0.057860594 -0.0668 -0.030594148 -0.02546163 0.036837574 0.039172687 -0.040454645 0.0064808605 0.013570955 0.04751419 -0.001993918 -0.0024242501 0.016426709 -0.03527265 -0.076518774 -0.047571972 -0.03452192 0.018390972 -0.03785753 -0.0010520206 0.020099185 0.015902877 -0.0073794792 -0.021191608 -0.06124543 -0.013192244 -0.015430829 -0.025934217 -0.0072248937 -0.029817214 0.0042656586 -0.03306035 -0.029382953 0.015909329 -0.08689445 0.011933007 -0.0019907157 -0.00068780757 -0.020859184 -0.04849652 -0.02896652 -0.019607944 0.012903239 -0.0086630415 -0.027332995 -0.03336941 -0.04171596 -0.034447394 -0.021797575 -0.0040925024 0.011993552 -0.0013211509 0.0006740422 -0.007859664 0.01700592 0.00627952 0.007552843 -0.01811063 0.0135258455 -0.0145395985 -0.030557951 0.007655255 -0.053924803 0.019763956 -0.023627074 0.008628551 -0.06447778 0.07433203 -0.041459184 0.039279576 0.093512125 0.021310627 0.013528991 -0.01036769 0.04025379 -0.037239492
also 0.066266865 0.05535648 0.026427176 -0.017160635 -0.029223718 -0.014501637 -0.061896544 -0.010928025 0.0051228595 0.0180917 -0.023915242 -0.05364819 0.08141828 0.07816637 0.04387544 0.006470359 -0.01488227 0.035166077 -0.05752532 -0.045541227 -0.020133158 -0.022248087 0.026037397 -0.04677113 0.011542414 0.0049922885 -0.026513008 0.0059670466 0.014883913 0.018120777 -0.052505475 0.0012910434 0.085280746 0.043495525 -0.008223506 -0.056668825 -0.05961965 0.017826457 -0.00046785315 -0.04623033 -0.05021865 0.0023795457 -0.031319432 0.014020675 0.024330173 0.02711763 0.0492922 -0.063189514 0.03869129 -0.04789734 -0.038868032 -0.042224444 -0.05174392 -0.02587714 -0.029318461 0.008717631 0.022164864 0.0591572 -0.031532746 0.003536351 0.0077493447 0.008987172 -0.044999864 0.01742024 0.042706404 -0.029930597 -0.017989008 -0.011269758 -0.047176026 -0.007931028 -0.04510856 0.013072757 -0.008083384 0.017650744 0.006933714 0.055438798 -0.028466322 -0.015317279 0.075409256 -0.036433604 0.0072835684 -0.0041520153 0.04500436 0.029042518 0.01365621 -0.014063236 -0.023462886 0.043157384 -0.023096388 0.005166844 -0.025022281 0.010405601 -0.012864758 -0.056872632 0.08415817 0.021886066 0.0062007345 0.015384077 0.015365609 -0.008490901 0.010528404 -0.020414626 0.0037990704 -0.045459125 -0.07114811 0.031644043 0.05079454 0.062074672 -0.03768039 -0.005321757 -0.06929947 -0.0077703334 -0.058501553 -0.035685524 -0.02568427 0.023860766 -0.05295097 -0.006070821 -0.026921704 0.005861285 -0.013913526 0.039846536 -0.013649674 0.008702445 -0.009524038 -0.012960535 0.0356506 -0.016610878 -0.05726914 -0.0020235935 0.0181111 0.013661889 0.008459515 -0.029778173 0.029970646 -0.03641697 0.0069750263 0.0074764416 0.015043987 -0.04263144 -0.02334307 0.022229748 -0.02553874 -0.016677616 -0.0056748516 -0.021886632 0.017671831 -0.008347244 -0.009875012 -0.0010848561 -0.07876659 0.07516761 -0.029252253 -0.011605863 -0.020108486 -0.027054947 0.01717447 0.033549402 0.03121849 -0.019269632 0.055092752 0.042067923 0.015184521 0.007242022 -0.011221616 0.04164462 0.046634186 -0.0068711927 -0.024142938 0.0076579237 -0.005740525 0.022942001 -0.02122124 0.01953529 0.028722024 -0.02796844 0.021677766 -0.027433265 -0.025048174 0.019295769 0.0047413637 0.026540566 -0.0034849101 -0.007344324 -0.050986163 -0.008030519 0.035226483 -0.019073825 -0.018997513 0.048740167 0.0814357 -0.022603864 -0.011101665 -0.015950793 0.038646314 -0.028079025 -0.008716388 0.05288081 -0.03123183 0.05113659
had 0.0645277 0.058423974 -0.010852557 0.052381672 -0.043957364 0.03828197 0.012195375 -0.016092842 -0.070158854 0.016917048 -0.018659158 0.021621425 -0.024236118 0.09279499 0.014043926 -0.046355363 -0.078062415 0.06355489 0.007332099 0.14301133 0.019724805 -0.039102525 0.056887817 -0.012869929 -0.035392314 -0.04903869 0.0039541377 -0.019672694 0.07785738 0.00421093 -0.0037807417 0.062908955 -0.046500728 0.029442843 -0.047493182 -0.034464628 0.0039783544 -0.015266895 0.064599276 0.011700175 0.068599865 -0.02177724 0.028453771 -0.0055192113 -0.044816874 0.016802398 -0.025625974 -0.004508846 0.030967208 0.075125985 0.030714449 0.032555595 0.008213443 0.012274666 -0.02194546 -0.07259417 -0.060598675 -0.0009839446 -0.0053755385 0.04095268 -0.062026568 0.0038280087 0.02631729 0.0056050387 -0.040900204 -0.06559704 0.024605684 0.01566488 -0.02420933 0.009071535 -0.06577836 0.0042410386 0.06409462 -0.008287268 -0.009713249 -0.025458556 -0.038297553 0.01836636 -0.040961154 0.019853314 -0.03653726 0.009269483 0.006125889 0.008181182 0.011710823 -0.01259471 0.016317513 -0.025651895 0.013986642 0.06873318 -0.019917995 -0.005362008 0.0015828649 0.041330833 -0.017240534 0.023006689 -0.009214095 0.028357306 0.05198731 -0.007877318 0.00089506834 -0.026130093 0.0024713913 -0.028121006 0.0042725806 0.027748946 0.07019488 -0.05137967 0.03800154 0.029362418 -0.078560695 0.028800612 -0.009251606 -0.016448949 -0.028471675 0.060232993 0.0015479153 0.07601426 -0.040202156 0.06259804 0.009744823 0.020561088 -0.01730124 0.032204468 -0.012445 -0.047790006 -0.034884263 0.0011176048 -0.027470743 0.02300179 0.015741326 -0.0041167596 -0.025672166 -0.00029717892 0.021739678 -0.011680288 -0.019058831 0.013947475 0.051227972 -0.042338833 -0.0009354358 -0.03284908 -0.01196462 -0.010235721 -0.00065527915 -0.021799775 -0.004583814 -0.0026219387 0.03712815 0.003282238 -0.02373703 -0.036546044 0.0512483 0.007570308 -0.041131333 0.011568441 0.039747227 -0.033211317 -0.006933616 0.016997676 -0.046872247 -0.0066798744 0.034242187 -0.019923996 0.055548143 -0.02197467 0.039499223 0.007071387 -0.015604723 0.020762073 -0.038416743 -0.010997624 0.029935699 -0.009407841 0.022608608 -0.016340595 -0.003285386 -0.024225632 0.0033078743 0.01828891 -0.009844375 -0.03805789 0.015531671 0.017609173 0.0076248017 0.0065522916 -0.032437135 -0.0049768523 0.021552324 -0.029949436 0.0035445362 0.004345015 -0.0016983611 0.012339531 -0.056460615 0.032383107 0.017312905 -0.014442088 0.00762097 0.04357626
its 0.06507254 0.058496606 -0.008521103 -0.053112436 -0.00041544926 0.017174779 -0.042533517 0.044698354 0.01981299 -0.06171737 -0.033869106 0.04901157 0.004461342 -0.052661873 0.035011586 -0.047279887 0.013234967 -0.0010651248 0.1137783 -0.042363454 0.013568448 0.024773305 -0.007768857 -0.01697448 -0.07716747 0.016578589 -0.06639562 -0.028755292 0.06374375 -0.01362873 -0.05605358 -0.008261332 -0.020932335 0.033090252 0.007804994 0.022095375 -0.015592774 -0.0070728944 0.04835625 0.0626234 0.060152065 -0.04996722 0.012205908 0.019701527 0.037646033 -0.05962908 0.022717597 0.040599808 -0.02392394 -0.024992708 -0.04064065 0.0008376301 -0.0071066013 0.006673033 0.037603136 0.032371033 0.026389563 0.008267313 0.005845388 -0.0007071568 -0.0004269016 -0.030450495 0.050131224 0.11752727 0.0037155335 -0.009124275 -0.047780514 -0.0548722 0.08849528 -0.033940893 -0.051977303 0.019877188 0.07830632 -0.0062411455 -0.03281788 -0.025739724 -0.002288407 0.052328307 -0.027580027 0.01170384 0.0242986 -0.02053043 -0.019081853 0.007480611 -0.008934095 0.062419374 0.044530604 0.04152149 0.0006471348 0.027008664 0.0098494785 -0.019239083 -0.04452035 0.011166307 -0.006454123 0.025646249 -0.021269333 0.004100371 0.01835104 0.049781397 -0.066777304 0.015672999 -0.035962723 -0.01785976 -0.03677773 0.011471002 0.04504326 -0.01181353 -0.030715097 -0.0046133352 0.016496891 0.012239075 -0.0131786745 0.03930523 0.022151547 0.038698476 -0.05364461 -0.008348851 0.0011489765 -0.062457588 0.032022763 -0.059716858 -0.025485821 -0.0075860936 -0.026219107 0.022629889 -0.004209726 -0.0041081184 0.033790138 0.017137973 0.036916178 0.03294267 0.043148633 0.046945572 -0.047408257 0.03530321 -0.0049617616 -0.012098821 -0.011653673 0.03616789 0.0029803908 0.035988983 -0.0043780687 -0.05548582 0.011014269 -0.005540025 0.037630778 -0.00088803866 -0.052665327 -0.040712137 -0.015030174 0.056687776 0.031140491 0.009002285 0.0015737102 -0.0046006 -0.014782743 -0.054987498 0.08910483 0.022413755 0.047449946 0.0067525646 -0.018159602 -0.014364617 0.026772019 -0.01910024 -0.007397837 -0.026415147 -0.040754315 0.033838462 -0.0014751513 -0.007799553 -0.04766205 -0.0016188927 0.02799716 -0.051258374 0.05590865 -0.004426378 -0.0045082285 -0.0067785787 -0.04585051 0.032225158 -0.020853864 -0.008486227 0.012929092 -0.029334031 -0.055876136 -0.029304815 0.005191531 -0.005593865 0.004992148 -0.051246233 0.00034550906 0.0020544215 0.03983609 0.04328405 0.00076066446 0.008597775 -0.0349479 -0.041063868
but 0.06405904 0.04940374 0.030372921 0.03342006 -0.0024741495 0.02897131 -0.006198847 0.009880154 -0.03097265 -0.010889815 0.009644964 -0.0005577605 -0.041561123 0.030881194 0.02878044 0.0013044107 0.042805266 -0.011783701 -0.016532734 -0.031597257 0.010501458 0.028746182 -0.02786574 -0.037499506 0.0027269162 0.017799817 -0.010011561 -0.024179636 0.016514352 -0.013139595 -0.008173943 0.010244109 -0.016747795 -0.016926887 -0.028080342 -0.040603515 -0.018438803 -0.011828638 0.01949926 0.022575077 0.020494243 0.0073704263 -0.029726423 -0.035727516 -0.06642121 0.06355504 -0.021887215 -0.0021126792 0.02444568 -0.011143705 -0.0005740761 -0.015793767 0.013687621 0.020120615 0.030691879 0.02470426 0.0047536753 0.007121998 0.07038221 -0.0033568111 0.038103703 -0.042219494 0.0147973895 -0.010904167 0.03070765 0.0039722803 -0.020535693 -0.018388657 0.0010192508 0.014474321 0.06107656 -0.007359668 -0.0074603083 -0.015130547 -0.028569853 0.0048605953 0.07856289 0.0029985681 -0.033936534 -0.0009240638 -0.021508573 0.031404555 -0.023450913 0.0050142477 -0.02496125 -0.022641178 0.026590232 0.009539651 -0.040231023 -0.009808122 -0.028694203 0.0071417387 0.0098943915 0.000989227 -0.07047551 -0.02135513 0.041567795 -0.02831994 -0.0018906024 -0.072340764 0.009073366 0.038558334 -0.0074595036 -0.05802679 -0.010715707 0.02408886 -0.004314745 0.01335753 -0.012039811 -0.018438049 -0.01825481 0.0044541783 -0.046925243 -0.023600832 0.0057742656 -0.0027015116 0.0074400627 -0.012943306 -0.012141467 -0.065452635 0.015835883 0.010648961 0.006375418 -0.005920706 0.017833732 -0.039756447 -0.022573832 0.008703796 0.010934409 -0.0037385554 -0.004795246 0.0474317 -0.006309369 0.007783695 0.062840804 -0.025288297 -0.02742284 -0.010781632 -0.026707217 0.004918652 0.0051975306 0.021078497 -0.024958726 -0.015181113 -0.020799644 -0.0035884597 -0.0070982156 -0.008175487 0.013900485 0.0060625123 0.07139393 -0.04661537 0.046086296 -0.019875668 0.01077712 0.012940399 -0.016005497 0.0055192797 -0.0034919255 -0.015750956 -0.009842798 -0.02088109 0.014355423 0.01112424 0.021817409 -0.025089819 0.026189093 0.017921071 -0.009666856 0.045706026 -0.010015339 -0.033063106 0.0102701895 -0.027018521 0.0009544715 0.05543427 0.016190976 -0.005333951 -0.013771498 0.013038128 -0.005667312 -0.021085769 0.0012241985 0.0013402698 -0.027347269 -0.020410275 0.042730838 -0.03686911 -0.04334599 -0.05016614 -0.010844898 0.064369075 0.011091792 -0.0005780705 -0.034831457 0.008513766 -0.00033422746 -0.013094454 0.020307297 0.0005551987
